{"learner":{"attributes":{"scikit_learn":"{\"_estimator_type\": \"classifier\"}"},"feature_names":["Home Odds","Draw Odds","Away Odds","Bookmaker Margin","Fair Odds(H)","Fair Odds(D)","Fair Odds(A)","Risk Score(H)","Cumulative Score(H)","Risk Score(A)","Cumulative Score(A)","Team_encoded","Opponent_encoded","AHh","B365AHH","B365AHA","B365gt2.5","B365lt2.5"],"feature_types":["float","float","float","float","float","float","float","float","float","float","float","int","int","float","float","float","float","float"],"gradient_booster":{"model":{"gbtree_model_param":{"num_parallel_tree":"1","num_trees":"500"},"iteration_indptr":[0,1,2,3,4,5,6,7,8,9,10,11,12,13,14,15,16,17,18,19,20,21,22,23,24,25,26,27,28,29,30,31,32,33,34,35,36,37,38,39,40,41,42,43,44,45,46,47,48,49,50,51,52,53,54,55,56,57,58,59,60,61,62,63,64,65,66,67,68,69,70,71,72,73,74,75,76,77,78,79,80,81,82,83,84,85,86,87,88,89,90,91,92,93,94,95,96,97,98,99,100,101,102,103,104,105,106,107,108,109,110,111,112,113,114,115,116,117,118,119,120,121,122,123,124,125,126,127,128,129,130,131,132,133,134,135,136,137,138,139,140,141,142,143,144,145,146,147,148,149,150,151,152,153,154,155,156,157,158,159,160,161,162,163,164,165,166,167,168,169,170,171,172,173,174,175,176,177,178,179,180,181,182,183,184,185,186,187,188,189,190,191,192,193,194,195,196,197,198,199,200,201,202,203,204,205,206,207,208,209,210,211,212,213,214,215,216,217,218,219,220,221,222,223,224,225,226,227,228,229,230,231,232,233,234,235,236,237,238,239,240,241,242,243,244,245,246,247,248,249,250,251,252,253,254,255,256,257,258,259,260,261,262,263,264,265,266,267,268,269,270,271,272,273,274,275,276,277,278,279,280,281,282,283,284,285,286,287,288,289,290,291,292,293,294,295,296,297,298,299,300,301,302,303,304,305,306,307,308,309,310,311,312,313,314,315,316,317,318,319,320,321,322,323,324,325,326,327,328,329,330,331,332,333,334,335,336,337,338,339,340,341,342,343,344,345,346,347,348,349,350,351,352,353,354,355,356,357,358,359,360,361,362,363,364,365,366,367,368,369,370,371,372,373,374,375,376,377,378,379,380,381,382,383,384,385,386,387,388,389,390,391,392,393,394,395,396,397,398,399,400,401,402,403,404,405,406,407,408,409,410,411,412,413,414,415,416,417,418,419,420,421,422,423,424,425,426,427,428,429,430,431,432,433,434,435,436,437,438,439,440,441,442,443,444,445,446,447,448,449,450,451,452,453,454,455,456,457,458,459,460,461,462,463,464,465,466,467,468,469,470,471,472,473,474,475,476,477,478,479,480,481,482,483,484,485,486,487,488,489,490,491,492,493,494,495,496,497,498,499,500],"tree_info":[0,0,0,0,0,0,0,0,0,0,0,0,0,0,0,0,0,0,0,0,0,0,0,0,0,0,0,0,0,0,0,0,0,0,0,0,0,0,0,0,0,0,0,0,0,0,0,0,0,0,0,0,0,0,0,0,0,0,0,0,0,0,0,0,0,0,0,0,0,0,0,0,0,0,0,0,0,0,0,0,0,0,0,0,0,0,0,0,0,0,0,0,0,0,0,0,0,0,0,0,0,0,0,0,0,0,0,0,0,0,0,0,0,0,0,0,0,0,0,0,0,0,0,0,0,0,0,0,0,0,0,0,0,0,0,0,0,0,0,0,0,0,0,0,0,0,0,0,0,0,0,0,0,0,0,0,0,0,0,0,0,0,0,0,0,0,0,0,0,0,0,0,0,0,0,0,0,0,0,0,0,0,0,0,0,0,0,0,0,0,0,0,0,0,0,0,0,0,0,0,0,0,0,0,0,0,0,0,0,0,0,0,0,0,0,0,0,0,0,0,0,0,0,0,0,0,0,0,0,0,0,0,0,0,0,0,0,0,0,0,0,0,0,0,0,0,0,0,0,0,0,0,0,0,0,0,0,0,0,0,0,0,0,0,0,0,0,0,0,0,0,0,0,0,0,0,0,0,0,0,0,0,0,0,0,0,0,0,0,0,0,0,0,0,0,0,0,0,0,0,0,0,0,0,0,0,0,0,0,0,0,0,0,0,0,0,0,0,0,0,0,0,0,0,0,0,0,0,0,0,0,0,0,0,0,0,0,0,0,0,0,0,0,0,0,0,0,0,0,0,0,0,0,0,0,0,0,0,0,0,0,0,0,0,0,0,0,0,0,0,0,0,0,0,0,0,0,0,0,0,0,0,0,0,0,0,0,0,0,0,0,0,0,0,0,0,0,0,0,0,0,0,0,0,0,0,0,0,0,0,0,0,0,0,0,0,0,0,0,0,0,0,0,0,0,0,0,0,0,0,0,0,0,0,0,0,0,0,0,0,0,0,0,0,0,0,0,0,0,0,0,0,0,0,0,0,0,0,0,0,0,0,0,0,0,0,0,0,0,0,0,0,0,0,0,0,0,0,0,0,0,0,0,0,0,0,0,0,0,0,0,0,0,0,0,0,0,0,0,0],"trees":[{"base_weights":[-1.2003989E-2,3.3959138E-1,-2.9606524E-1,6.873673E-1,2.4614854E-1,-1.3577615E-1,-4.397554E-1,7.3857164E-1,-3.0732732E-2,7.251273E-2,3.190022E-1,7.781354E-1,-1.4507228E-1,-3.568843E-1,-5.535666E-1,6.7641306E-1,1.0154306E0,3.5330614E-1,-5.2239394E-1,-2.540014E-2,3.4011927E-1,4.9371845E-1,2.7867198E-1,3.1180011E-2,-0E0,-3.1418398E-2,-2.0415314E-1,-2.3871402E-1,-4.206945E-1,-5.645149E-1,1.3273184E-1,8.555331E-1,5.641622E-1,-0E0,1.1103959E0,-6.028595E-2,2.447094E-2,-8.320729E-1,-0E0,-7.449753E-1,8.888244E-4,-1.3748978E-1,4.516359E-1,5.7569873E-1,7.5818636E-2,2.086085E-1,3.8224927E-1,-1.9628935E-1,4.8611008E-2,-4.1797367E-1,-1.556045E-1,-5.762813E-1,-1.7286313E-1,-3.3088985E-1,-5.3399134E-1,-0E0,-5.767118E-1,1.6041378E-2,-2.5795188E-3,-0E0,2.6480034E-2,-7.024187E-3,1.7571624E-2,1.2713059E-2,-8.15748E-3,2.5430562E-3,3.426996E-2,7.495424E-3,-1.3220356E-2,-3.2373905E-2,-3.2300275E-4,-0E0,-3.0417051E-2,1.9538837E-2,-1.0656655E-3,-1.0770277E-2,1.966257E-2,1.639839E-2,-7.32669E-3,2.4751175E-2,1.03359055E-2,-3.2457674E-3,1.8033164E-2,-9.031228E-3,6.793114E-3,1.2167727E-2,-4.7968356E-3,1.6672306E-3,-9.257527E-3,-7.852764E-3,2.9753174E-3,-1.4933932E-2,-3.2263307E-3,-1.03174E-3,-7.651981E-3,5.3037168E-3,-2.289429E-2,1.4816422E-2,-6.368851E-3,-1.826471E-2,-7.462398E-3,-1.8100109E-2,-4.097829E-3,-1.03388615E-2,8.594451E-3,-2.7674014E-2,-1.5541641E-2],"categories":[],"categories_nodes":[],"categories_segments":[],"categories_sizes":[],"default_left":[0,0,0,0,0,0,0,0,0,0,0,0,0,0,0,0,0,0,0,0,0,0,0,0,0,0,0,0,0,0,0,0,0,0,0,0,0,0,0,0,0,0,0,0,0,0,0,0,0,0,0,0,0,0,0,0,0,0,0,0,0,0,0,0,0,0,0,0,0,0,0,0,0,0,0,0,0,0,0,0,0,0,0,0,0,0,0,0,0,0,0,0,0,0,0,0,0,0,0,0,0,0,0,0,0,0,0],"id":0,"left_children":[1,3,5,7,9,11,13,15,17,19,21,23,25,27,29,31,33,35,37,39,41,43,45,-1,-1,47,49,51,53,55,57,59,61,63,65,67,-1,69,-1,71,73,75,77,79,81,83,85,87,89,91,93,95,97,99,101,103,105,-1,-1,-1,-1,-1,-1,-1,-1,-1,-1,-1,-1,-1,-1,-1,-1,-1,-1,-1,-1,-1,-1,-1,-1,-1,-1,-1,-1,-1,-1,-1,-1,-1,-1,-1,-1,-1,-1,-1,-1,-1,-1,-1,-1,-1,-1,-1,-1,-1,-1],"loss_changes":[5.2910565E2,7.561902E1,6.683569E1,1.9054108E1,2.3222366E1,1.14202E1,1.323703E1,4.9533386E0,6.910363E0,1.499104E1,8.203613E0,2.2391396E0,9.024031E0,5.9482956E0,5.397629E0,5.445862E0,6.599785E0,4.4871206E0,3.0446424E0,8.477138E0,8.573435E0,7.4486313E0,7.057625E0,0E0,0E0,6.5062785E0,8.664253E0,6.3144627E0,4.664772E0,4.8159943E0,1.4418055E0,3.810997E0,4.906624E0,1.4576615E0,9.0463257E-1,1.679166E0,0E0,1.118742E0,0E0,2.566783E0,1.0015739E1,5.223643E0,8.896217E0,9.644966E0,4.82734E0,5.985615E0,5.7658386E0,4.854692E0,4.926831E0,3.3016167E0,8.643976E0,7.891718E0,7.256198E0,6.435814E0,5.915291E0,1.5332501E0,1.01922455E1,0E0,0E0,0E0,0E0,0E0,0E0,0E0,0E0,0E0,0E0,0E0,0E0,0E0,0E0,0E0,0E0,0E0,0E0,0E0,0E0,0E0,0E0,0E0,0E0,0E0,0E0,0E0,0E0,0E0,0E0,0E0,0E0,0E0,0E0,0E0,0E0,0E0,0E0,0E0,0E0,0E0,0E0,0E0,0E0,0E0,0E0,0E0,0E0,0E0,0E0],"parents":[2147483647,0,0,1,1,2,2,3,3,4,4,5,5,6,6,7,7,8,8,9,9,10,10,11,11,12,12,13,13,14,14,15,15,16,16,17,17,18,18,19,19,20,20,21,21,22,22,25,25,26,26,27,27,28,28,29,29,30,30,31,31,32,32,33,33,34,34,35,35,37,37,39,39,40,40,41,41,42,42,43,43,44,44,45,45,46,46,47,47,48,48,49,49,50,50,51,51,52,52,53,53,54,54,55,55,56,56],"right_children":[2,4,6,8,10,12,14,16,18,20,22,24,26,28,30,32,34,36,38,40,42,44,46,-1,-1,48,50,52,54,56,58,60,62,64,66,68,-1,70,-1,72,74,76,78,80,82,84,86,88,90,92,94,96,98,100,102,104,106,-1,-1,-1,-1,-1,-1,-1,-1,-1,-1,-1,-1,-1,-1,-1,-1,-1,-1,-1,-1,-1,-1,-1,-1,-1,-1,-1,-1,-1,-1,-1,-1,-1,-1,-1,-1,-1,-1,-1,-1,-1,-1,-1,-1,-1,-1,-1,-1,-1,-1],"split_conditions":[1.89E0,1.54E0,2.1E0,3.023572E0,2.04E0,1.5846616E0,2.256E0,7.851433E0,1.49E0,1.0406083E0,1.91E0,6.60014E-2,5.5227663E-2,-6.760304E-1,4.407446E0,-2.951633E-1,-6.168259E-1,1.41E0,1.932E0,-5.0496334E-1,-3.4801137E-1,2.022E0,2.2E0,3.1180011E-2,-0E0,-7.064442E-1,-1.6131791E0,4.9603175E-2,3.4941177E0,2.0232143E0,-6.760304E-1,4.385965E-2,3.7731092E0,8.9561405E0,-1.7851241E0,-9.047029E-1,2.447094E-2,2.022E0,-0E0,-9.4791037E-1,-4.3653432E-1,3.8852754E0,6.873366E0,1.942E0,2.1057088E0,2E0,7.7272725E-1,1.864E0,3.4660325E0,2.012E0,1.902E0,1.76E0,-5.28197E-1,-1.4541187E0,4.8E0,3.4941177E0,2.601639E0,1.6041378E-2,-2.5795188E-3,-0E0,2.6480034E-2,-7.024187E-3,1.7571624E-2,1.2713059E-2,-8.15748E-3,2.5430562E-3,3.426996E-2,7.495424E-3,-1.3220356E-2,-3.2373905E-2,-3.2300275E-4,-0E0,-3.0417051E-2,1.9538837E-2,-1.0656655E-3,-1.0770277E-2,1.966257E-2,1.639839E-2,-7.32669E-3,2.4751175E-2,1.03359055E-2,-3.2457674E-3,1.8033164E-2,-9.031228E-3,6.793114E-3,1.2167727E-2,-4.7968356E-3,1.6672306E-3,-9.257527E-3,-7.852764E-3,2.9753174E-3,-1.4933932E-2,-3.2263307E-3,-1.03174E-3,-7.651981E-3,5.3037168E-3,-2.289429E-2,1.4816422E-2,-6.368851E-3,-1.826471E-2,-7.462398E-3,-1.8100109E-2,-4.097829E-3,-1.03388615E-2,8.594451E-3,-2.7674014E-2,-1.5541641E-2],"split_indices":[16,16,16,10,17,6,16,5,16,8,2,3,3,10,8,9,7,16,15,7,7,14,17,0,0,10,8,3,5,6,10,3,5,5,8,8,0,14,0,8,7,8,6,15,10,2,7,15,5,14,14,0,9,8,2,5,6,0,0,0,0,0,0,0,0,0,0,0,0,0,0,0,0,0,0,0,0,0,0,0,0,0,0,0,0,0,0,0,0,0,0,0,0,0,0,0,0,0,0,0,0,0,0,0,0,0,0],"split_type":[0,0,0,0,0,0,0,0,0,0,0,0,0,0,0,0,0,0,0,0,0,0,0,0,0,0,0,0,0,0,0,0,0,0,0,0,0,0,0,0,0,0,0,0,0,0,0,0,0,0,0,0,0,0,0,0,0,0,0,0,0,0,0,0,0,0,0,0,0,0,0,0,0,0,0,0,0,0,0,0,0,0,0,0,0,0,0,0,0,0,0,0,0,0,0,0,0,0,0,0,0,0,0,0,0,0,0],"sum_hessian":[5.294121E3,2.3640808E3,2.9300403E3,4.957145E2,1.8683662E3,1.3901505E3,1.5398898E3,4.639668E2,3.1747726E1,5.574601E2,1.3109061E3,1.1249195E1,1.3789012E3,9.009355E2,6.389543E2,3.8747226E2,7.649452E1,1.6998783E1,1.4748944E1,4.067209E2,1.5073921E2,2.3698303E2,1.0739231E3,7.499463E0,3.7497315E0,4.7846576E2,9.0043555E2,3.2472675E2,5.7620874E2,6.3070483E2,8.24941E0,1.4073993E2,2.4673233E2,7.499463E0,6.899506E1,8.749373E0,8.24941E0,8.999355E0,5.7495885E0,1.3749016E1,3.9297186E2,2.6748085E1,1.2399113E2,1.9548601E2,4.149703E1,6.499535E2,4.2396964E2,1.5948859E2,3.1897717E2,1.5998854E2,7.40447E2,4.7996563E1,2.767302E2,3.3072632E2,2.4548242E2,1.1999141E1,6.187057E2,3.4997494E0,4.74966E0,3.7497315E0,1.3699019E2,4.74966E0,2.4198268E2,3.7497315E0,3.7497315E0,3.2497673E0,6.574529E1,3.7497315E0,4.999642E0,5.499606E0,3.4997494E0,4.74966E0,8.999355E0,2.0498533E1,3.7247333E2,2.2748371E1,3.9997137E0,1.1074207E2,1.3249051E1,8.949359E1,1.0599241E2,3.0497816E1,1.0999212E1,1.899864E1,6.3095483E2,4.0872073E2,1.5248908E1,4.6746655E1,1.1274193E2,4.074708E1,2.7823007E2,1.2374114E2,3.6247406E1,3.394757E2,4.0097128E2,8.499392E0,3.9497173E1,1.2749087E1,2.639811E2,6.974501E1,2.6098132E2,2.0598526E2,3.9497173E1,3.9997137E0,7.9994273E0,8.299406E1,5.357117E2],"tree_param":{"num_deleted":"0","num_feature":"18","num_nodes":"107","size_leaf_vector":"1"}},{"base_weights":[4.1860115E-4,-2.6798776E-1,3.4210336E-1,-1.4384694E-1,-4.980625E-1,1.6916972E-1,5.5540764E-1,-2.651748E-1,-8.479493E-2,-5.761296E-1,-4.009583E-1,7.477487E-2,2.1739958E-1,7.7016634E-1,4.355108E-1,-1.482902E-1,-4.0244207E-1,6.954228E-1,-9.244282E-2,-1.3892841E-1,-6.086253E-1,-2.724908E-1,-4.7412497E-1,-5.620535E-1,1.0426587E-1,3.3477914E-1,1.4812644E-1,6.1754805E-1,9.883955E-1,4.5318115E-1,-1.7445175E-1,3.876701E-1,-1.7442673E-1,-7.5348926E-1,-2.7298325E-1,2.8128428E-2,3.6081085E-3,-2.4887115E-1,-5.4715812E-2,-4.1117534E-1,8.054112E-2,-6.334424E-1,-2.1953836E-1,-3.8661655E-2,-4.4209915E-1,-6.888447E-1,-2.808773E-1,2.6940745E-3,-7.748334E-1,2.6995037E-2,3.9071384E-1,3.8840923E-1,-3.4865174E-2,2.982972E-1,4.168834E-2,6.568943E-1,-1.6047971E-1,1.592253E-2,1.0541149E0,5.8284736E-1,3.757625E-1,1.2450337E-2,-5.156968E-1,-3.065895E-4,1.9661397E-2,-4.325129E-3,-2.0885702E-2,-8.279148E-3,-2.649394E-2,1.1406059E-2,-1.00467345E-2,-1.3548614E-2,-3.3229755E-3,4.4906075E-4,-4.3941056E-3,-0E0,-1.941836E-2,1.1907328E-2,-1.0820864E-2,-2.479034E-2,-1.7299403E-2,4.815687E-3,-1.4615856E-2,7.0556686E-3,-1.0141308E-2,-2.347843E-2,-5.864394E-3,-2.1511631E-2,-0E0,2.1843552E-3,-1.3876531E-2,-3.8218894E-3,-3.1549603E-2,-2.2670764E-3,9.443455E-3,1.5136254E-2,-8.789365E-3,6.8750805E-3,1.5621114E-2,1.5227395E-2,-6.886293E-3,-1.727996E-4,1.0488601E-2,1.0002107E-2,-9.765267E-4,2.056931E-2,-0E0,-2.2261376E-2,7.852959E-3,-1.17118955E-2,1.53220575E-2,-0E0,3.290612E-2,1.1308756E-2,2.1030717E-2,1.2205418E-2,-3.1447574E-3,-2.326544E-2,-0E0],"categories":[],"categories_nodes":[],"categories_segments":[],"categories_sizes":[],"default_left":[0,0,0,0,0,0,0,0,0,0,0,0,0,0,0,0,0,0,0,0,0,0,0,0,0,0,0,0,0,0,0,0,0,0,0,0,0,0,0,0,0,0,0,0,0,0,0,0,0,0,0,0,0,0,0,0,0,0,0,0,0,0,0,0,0,0,0,0,0,0,0,0,0,0,0,0,0,0,0,0,0,0,0,0,0,0,0,0,0,0,0,0,0,0,0,0,0,0,0,0,0,0,0,0,0,0,0,0,0,0,0,0,0,0,0,0,0,0,0],"id":1,"left_children":[1,3,5,7,9,11,13,15,17,19,21,23,25,27,29,31,33,35,37,39,41,43,45,47,49,51,53,55,57,59,61,63,65,67,69,-1,-1,71,73,75,77,79,81,83,85,87,89,-1,91,93,95,97,99,101,103,105,107,109,111,113,115,-1,117,-1,-1,-1,-1,-1,-1,-1,-1,-1,-1,-1,-1,-1,-1,-1,-1,-1,-1,-1,-1,-1,-1,-1,-1,-1,-1,-1,-1,-1,-1,-1,-1,-1,-1,-1,-1,-1,-1,-1,-1,-1,-1,-1,-1,-1,-1,-1,-1,-1,-1,-1,-1,-1,-1,-1,-1],"loss_changes":[4.8924954E2,8.4489944E1,8.570914E1,1.35397E1,6.465515E0,5.604328E0,2.5106903E1,9.441654E0,7.3822517E0,7.149338E0,3.4785156E0,8.119225E0,6.3609467E0,9.491608E0,7.7669983E0,4.7896914E0,1.150264E1,3.5284233E-1,7.382144E0,3.025828E0,3.9454803E0,6.7327404E0,1.0935768E1,3.4247122E0,9.16081E0,6.5252E0,8.360976E0,7.6156464E0,8.238998E0,5.259857E0,4.3501954E0,2.2562637E0,4.239292E0,2.9035034E0,8.832386E0,0E0,0E0,6.288497E0,6.9178085E0,2.4603717E0,3.6727583E0,3.020584E0,4.246912E0,6.943656E0,7.3865604E0,3.356903E0,1.085032E1,0E0,1.3308363E0,1.05131855E1,7.4522333E0,4.767071E0,4.046533E0,3.8155975E0,7.3761053E0,3.6539612E0,3.6306622E0,2.9815083E0,6.787674E0,4.219345E0,6.7461243E0,0E0,2.591644E0,0E0,0E0,0E0,0E0,0E0,0E0,0E0,0E0,0E0,0E0,0E0,0E0,0E0,0E0,0E0,0E0,0E0,0E0,0E0,0E0,0E0,0E0,0E0,0E0,0E0,0E0,0E0,0E0,0E0,0E0,0E0,0E0,0E0,0E0,0E0,0E0,0E0,0E0,0E0,0E0,0E0,0E0,0E0,0E0,0E0,0E0,0E0,0E0,0E0,0E0,0E0,0E0,0E0,0E0,0E0,0E0],"parents":[2147483647,0,0,1,1,2,2,3,3,4,4,5,5,6,6,7,7,8,8,9,9,10,10,11,11,12,12,13,13,14,14,15,15,16,16,17,17,18,18,19,19,20,20,21,21,22,22,23,23,24,24,25,25,26,26,27,27,28,28,29,29,30,30,31,31,32,32,33,33,34,34,37,37,38,38,39,39,40,40,41,41,42,42,43,43,44,44,45,45,46,46,48,48,49,49,50,50,51,51,52,52,53,53,54,54,55,55,56,56,57,57,58,58,59,59,60,60,62,62],"right_children":[2,4,6,8,10,12,14,16,18,20,22,24,26,28,30,32,34,36,38,40,42,44,46,48,50,52,54,56,58,60,62,64,66,68,70,-1,-1,72,74,76,78,80,82,84,86,88,90,-1,92,94,96,98,100,102,104,106,108,110,112,114,116,-1,118,-1,-1,-1,-1,-1,-1,-1,-1,-1,-1,-1,-1,-1,-1,-1,-1,-1,-1,-1,-1,-1,-1,-1,-1,-1,-1,-1,-1,-1,-1,-1,-1,-1,-1,-1,-1,-1,-1,-1,-1,-1,-1,-1,-1,-1,-1,-1,-1,-1,-1,-1,-1,-1,-1,-1,-1],"split_conditions":[1.98E0,2.2E0,2.2E0,1.74E0,5.952381E-2,2.02E0,1.53E0,6.05042E-2,1.5E0,3.8E1,3.30598E0,-5.0496334E-1,-4.797983E-1,6.3795714E0,7.863995E-1,1.6728572E0,-1.2115374E0,3.34E2,-1.6131791E0,1.952E0,6.845023E-1,-2.3401265E-1,1.61E0,5.2519895E-2,3.98E2,2.032E0,5.8389056E-2,9.442253E-2,-2.1706762E0,-2.951633E-1,-3.9582187E-1,1.5771896E0,3.9571037E0,3.4142857E0,-9.047029E-1,2.8128428E-2,3.6081085E-3,2.3435898E0,-1.10987484E-1,3.1E0,4.75364E-2,3.2502904E0,7.155361E-1,-1.4140299E-1,-5.2350277E-1,7.026817E-1,-7.842637E-1,2.6940745E-3,-2.7631578E-1,9.447431E-1,9.588532E-2,6.05042E-2,-3.5542366E-1,-4.5648414E-1,1.95E0,6.3112783E0,1.01801425E-1,-7.842637E-1,-6.9348127E-1,4.040976E0,3.3692203E0,1.2450337E-2,1.218305E0,-3.065895E-4,1.9661397E-2,-4.325129E-3,-2.0885702E-2,-8.279148E-3,-2.649394E-2,1.1406059E-2,-1.00467345E-2,-1.3548614E-2,-3.3229755E-3,4.4906075E-4,-4.3941056E-3,-0E0,-1.941836E-2,1.1907328E-2,-1.0820864E-2,-2.479034E-2,-1.7299403E-2,4.815687E-3,-1.4615856E-2,7.0556686E-3,-1.0141308E-2,-2.347843E-2,-5.864394E-3,-2.1511631E-2,-0E0,2.1843552E-3,-1.3876531E-2,-3.8218894E-3,-3.1549603E-2,-2.2670764E-3,9.443455E-3,1.5136254E-2,-8.789365E-3,6.8750805E-3,1.5621114E-2,1.5227395E-2,-6.886293E-3,-1.727996E-4,1.0488601E-2,1.0002107E-2,-9.765267E-4,2.056931E-2,-0E0,-2.2261376E-2,7.852959E-3,-1.17118955E-2,1.53220575E-2,-0E0,3.290612E-2,1.1308756E-2,2.1030717E-2,1.2205418E-2,-3.1447574E-3,-2.326544E-2,-0E0],"split_indices":[17,16,17,17,3,17,16,3,2,12,5,7,10,5,7,4,8,12,8,14,9,7,17,3,12,14,3,3,8,9,9,4,5,5,8,0,0,4,9,2,10,5,9,10,10,9,10,0,9,8,3,3,7,9,2,5,3,10,7,5,8,0,10,0,0,0,0,0,0,0,0,0,0,0,0,0,0,0,0,0,0,0,0,0,0,0,0,0,0,0,0,0,0,0,0,0,0,0,0,0,0,0,0,0,0,0,0,0,0,0,0,0,0,0,0,0,0,0,0],"split_type":[0,0,0,0,0,0,0,0,0,0,0,0,0,0,0,0,0,0,0,0,0,0,0,0,0,0,0,0,0,0,0,0,0,0,0,0,0,0,0,0,0,0,0,0,0,0,0,0,0,0,0,0,0,0,0,0,0,0,0,0,0,0,0,0,0,0,0,0,0,0,0,0,0,0,0,0,0,0,0,0,0,0,0,0,0,0,0,0,0,0,0,0,0,0,0,0,0,0,0,0,0,0,0,0,0,0,0,0,0,0,0,0,0,0,0,0,0,0,0],"sum_hessian":[5.329917E3,2.9836506E3,2.346266E3,1.9429144E3,1.0407363E3,1.3003217E3,1.0459445E3,6.282339E2,1.3146805E3,5.657421E2,4.7499423E2,4.48452E2,8.518697E2,3.6785556E2,6.780889E2,3.4549048E2,2.827434E2,9.746562E0,1.304934E3,4.1999413E1,5.237427E2,1.8074843E2,2.9424582E2,1.6748981E1,4.3170303E2,3.0795526E2,5.439144E2,2.2367247E2,1.4418309E2,6.6109094E2,1.6997984E1,1.2999279E1,3.324912E2,7.1498726E1,2.1124467E2,4.748107E0,4.998455E0,2.462408E2,1.0586931E3,1.9999697E1,2.1999716E1,4.88743E2,3.4999664E1,7.949926E1,1.01249176E2,1.3449878E2,1.5974702E2,3.2496922E0,1.349929E1,3.444621E2,8.724093E1,2.7121033E2,3.674495E1,2.2021648E2,3.2369794E2,2.1442528E2,9.247189E0,1.0247542E1,1.3393555E2,2.3743843E2,4.2365253E2,4.999361E0,1.1998624E1,4.4997244E0,8.499555E0,3.1849185E2,1.399934E1,1.824969E1,5.3249035E1,1.5999494E1,1.9524518E2,9.499689E1,1.5124391E2,5.9646906E2,4.6222406E2,7.249815E0,1.2749881E1,1.4249789E1,7.7499275E0,1.0099955E2,3.8774347E2,1.324985E1,2.1749815E1,3.9999523E1,3.9499737E1,3.8999603E1,6.2249573E1,1.3049887E2,3.999917E0,5.274846E1,1.06998566E2,5.999747E0,7.4995437E0,2.5248064E2,9.198146E1,7.649242E1,1.0748506E1,1.2898161E2,1.4222871E2,7.498921E0,2.9246027E1,2.9245495E1,1.9097098E2,6.698308E1,2.5671484E2,2.0442879E2,9.996487E0,4.248785E0,4.9984035E0,4.748969E0,5.498574E0,4.7492156E0,1.2918633E2,9.272795E1,1.4471048E2,4.0015768E2,2.3494827E1,8.499238E0,3.4993858E0],"tree_param":{"num_deleted":"0","num_feature":"18","num_nodes":"119","size_leaf_vector":"1"}},{"base_weights":[-7.3318095E-3,3.9407068E-1,-2.0942096E-1,7.377169E-1,3.0148768E-1,-5.64461E-2,-4.0736008E-1,6.450896E-1,1.0043943E0,2.1082473E-1,3.945994E-1,1.5571209E-2,-1.421739E-1,-3.1627682E-1,-5.322785E-1,6.773024E-1,-0E0,-3.228152E-4,1.0575067E0,1.16814986E-1,2.777223E-1,5.4857343E-1,3.0306587E-1,1.7088398E-1,-4.8989337E-2,7.973027E-1,-1.517332E-1,-7.454508E-1,-2.909304E-1,-7.56415E-1,-4.8937657E-1,1.609498E-1,6.949561E-1,-1.8545913E-2,2.5488245E-1,-0E0,3.2801665E-2,1.7382832E-1,-2.2769144E-1,3.3649236E-1,2.2953846E-2,3.1175843E-1,6.8765396E-1,3.2528296E-1,-2.235668E-2,9.5568106E-2,3.619437E-1,-2.0271763E-1,3.2155022E-2,2.2787992E-3,3.0730447E-2,2.2270009E-2,-1.6041587E-1,-8.227918E-1,-0E0,-1.0136181E0,-2.7677897E-1,-8.050242E-1,-0E0,-3.6296377E-1,-5.725093E-1,2.6550738E-2,-1.8635688E-2,1.3136454E-2,2.2518266E-2,-6.460426E-4,1.756499E-2,8.7042665E-3,-1.1908299E-3,-1.1357881E-2,6.5919016E-3,3.7997803E-3,1.158717E-2,-4.86E-3,1.1103874E-2,1.403787E-2,-1.6330471E-3,2.2087878E-2,3.2781991E-3,7.760452E-3,1.6644387E-2,3.5679722E-4,1.1167208E-2,1.4941456E-2,-0E0,-3.3386203E-3,-1.6389836E-2,1.9515741E-3,-1.3698734E-2,-4.4905194E-3,-2.6409434E-2,-2.7312487E-2,-1.8927001E-3,-4.903226E-3,-3.647799E-2,-4.866101E-3,-1.0400088E-2,-0E0,-2.5403839E-2,-1.3130539E-2,7.8803004E-4,9.801927E-3,-1.7672192E-2],"categories":[],"categories_nodes":[],"categories_segments":[],"categories_sizes":[],"default_left":[0,0,0,0,0,0,0,0,0,0,0,0,0,0,0,0,0,0,0,0,0,0,0,0,0,0,0,0,0,0,0,0,0,0,0,0,0,0,0,0,0,0,0,0,0,0,0,0,0,0,0,0,0,0,0,0,0,0,0,0,0,0,0,0,0,0,0,0,0,0,0,0,0,0,0,0,0,0,0,0,0,0,0,0,0,0,0,0,0,0,0,0,0,0,0,0,0,0,0,0,0,0,0],"id":2,"left_children":[1,3,5,7,9,11,13,15,17,19,21,23,25,27,29,31,33,-1,35,37,39,41,43,45,47,49,51,53,55,57,59,61,63,-1,65,-1,-1,67,69,71,73,75,77,79,-1,81,83,85,87,-1,-1,-1,89,91,-1,93,95,97,-1,99,101,-1,-1,-1,-1,-1,-1,-1,-1,-1,-1,-1,-1,-1,-1,-1,-1,-1,-1,-1,-1,-1,-1,-1,-1,-1,-1,-1,-1,-1,-1,-1,-1,-1,-1,-1,-1,-1,-1,-1,-1,-1,-1],"loss_changes":[4.2943307E2,5.4888947E1,1.06203384E2,6.2529144E0,1.1059189E1,1.2436104E1,1.6259048E1,6.512436E0,5.901718E0,4.067499E0,8.451302E0,1.0954043E1,7.826908E0,8.278984E0,4.1578674E0,1.4044113E0,2.8790407E0,0E0,2.4688873E0,6.0931444E0,5.8070946E0,6.7516327E0,1.0249901E1,4.102584E0,9.65045E0,1.3573647E-1,6.720213E0,3.101015E0,6.859108E0,3.1787605E0,4.3837433E0,8.99986E0,1.8885727E0,0E0,1.5484068E0,0E0,0E0,6.9465485E0,3.1773076E0,2.8564606E0,5.6400704E0,6.080862E0,3.2709656E0,5.4815063E0,0E0,5.0986958E0,3.9224243E0,7.6002684E0,7.614247E0,0E0,0E0,0E0,5.6903954E0,1.7572651E0,0E0,6.7410755E-1,6.10096E0,3.451355E0,0E0,7.0286293E0,5.4280624E0,0E0,0E0,0E0,0E0,0E0,0E0,0E0,0E0,0E0,0E0,0E0,0E0,0E0,0E0,0E0,0E0,0E0,0E0,0E0,0E0,0E0,0E0,0E0,0E0,0E0,0E0,0E0,0E0,0E0,0E0,0E0,0E0,0E0,0E0,0E0,0E0,0E0,0E0,0E0,0E0,0E0,0E0],"parents":[2147483647,0,0,1,1,2,2,3,3,4,4,5,5,6,6,7,7,8,8,9,9,10,10,11,11,12,12,13,13,14,14,15,15,16,16,18,18,19,19,20,20,21,21,22,22,23,23,24,24,25,25,26,26,27,27,28,28,29,29,30,30,31,31,32,32,34,34,37,37,38,38,39,39,40,40,41,41,42,42,43,43,45,45,46,46,47,47,48,48,52,52,53,53,55,55,56,56,57,57,59,59,60,60],"right_children":[2,4,6,8,10,12,14,16,18,20,22,24,26,28,30,32,34,-1,36,38,40,42,44,46,48,50,52,54,56,58,60,62,64,-1,66,-1,-1,68,70,72,74,76,78,80,-1,82,84,86,88,-1,-1,-1,90,92,-1,94,96,98,-1,100,102,-1,-1,-1,-1,-1,-1,-1,-1,-1,-1,-1,-1,-1,-1,-1,-1,-1,-1,-1,-1,-1,-1,-1,-1,-1,-1,-1,-1,-1,-1,-1,-1,-1,-1,-1,-1,-1,-1,-1,-1,-1,-1],"split_conditions":[1.77E0,1.53E0,2.1E0,1.2686956E1,2.2E0,1.97E0,2.256E0,9.4965644E-2,-6.9348127E-1,3.8577898E0,-2.951633E-1,5.507956E-2,1.53E0,4.62544E-2,6.1E1,1.289359E0,4.625516E0,-3.228152E-4,1.79E0,9.379509E-2,2.13E0,4.0265174E0,8.073654E-1,2.018E0,-2.881356E-1,1.81E0,1.37E0,7.308223E-1,3.1848226E0,5.5E0,1.9E0,1.922E0,1.45E0,-1.8545913E-2,1.01801425E-1,-0E0,3.2801665E-2,3.7773547E0,1.10626884E-1,1.6178846E0,2.596922E-1,3.4222221E0,6.3795714E0,3.94E2,-2.235668E-2,5.3324554E-2,1.93E0,5.472822E-1,4.8E2,2.2787992E-3,3.0730447E-2,2.2270009E-2,4.5388393E0,2.06E0,-0E0,1.23E2,3.0624614E0,2.9E0,-0E0,1.872E0,2.0232143E0,2.6550738E-2,-1.8635688E-2,1.3136454E-2,2.2518266E-2,-6.460426E-4,1.756499E-2,8.7042665E-3,-1.1908299E-3,-1.1357881E-2,6.5919016E-3,3.7997803E-3,1.158717E-2,-4.86E-3,1.1103874E-2,1.403787E-2,-1.6330471E-3,2.2087878E-2,3.2781991E-3,7.760452E-3,1.6644387E-2,3.5679722E-4,1.1167208E-2,1.4941456E-2,-0E0,-3.3386203E-3,-1.6389836E-2,1.9515741E-3,-1.3698734E-2,-4.4905194E-3,-2.6409434E-2,-2.7312487E-2,-1.8927001E-3,-4.903226E-3,-3.647799E-2,-4.866101E-3,-1.0400088E-2,-0E0,-2.5403839E-2,-1.3130539E-2,7.8803004E-4,9.801927E-3,-1.7672192E-2],"split_indices":[16,16,16,6,17,16,16,3,7,5,9,3,2,3,11,4,5,0,15,3,17,5,7,15,7,17,0,7,5,2,15,15,2,0,3,0,0,5,3,4,9,6,5,11,0,3,16,9,11,0,0,0,5,15,0,11,6,1,0,15,6,0,0,0,0,0,0,0,0,0,0,0,0,0,0,0,0,0,0,0,0,0,0,0,0,0,0,0,0,0,0,0,0,0,0,0,0,0,0,0,0,0,0],"split_type":[0,0,0,0,0,0,0,0,0,0,0,0,0,0,0,0,0,0,0,0,0,0,0,0,0,0,0,0,0,0,0,0,0,0,0,0,0,0,0,0,0,0,0,0,0,0,0,0,0,0,0,0,0,0,0,0,0,0,0,0,0,0,0,0,0,0,0,0,0,0,0,0,0,0,0,0,0,0,0,0,0,0,0,0,0,0,0,0,0,0,0,0,0,0,0,0,0,0,0,0,0,0,0],"sum_hessian":[5.292101E3,1.7698544E3,3.5222468E3,3.7037445E2,1.39948E3,1.991084E3,1.531163E3,2.8275174E2,8.76227E1,7.1781305E2,6.8166693E2,1.0766201E3,9.144638E2,8.942192E2,6.369438E2,2.705064E2,1.2245346E1,3.4996436E0,8.412306E1,3.069306E2,4.1088245E2,2.4635211E2,4.353148E2,3.197047E2,7.569154E2,6.497275E0,9.0796655E2,4.44976E1,8.4972156E2,9.3241585E1,5.437022E2,1.1484228E1,2.590222E2,3.7491987E0,8.496147E0,3.4947662E0,8.0628296E1,2.6668903E2,4.0241558E1,3.3015543E2,8.072703E1,9.62088E1,1.5014331E2,4.2856528E2,6.7495337E0,2.3521655E2,8.448816E1,2.6472333E2,4.9219208E2,3.2488682E0,3.2484066E0,5.999749E0,9.019668E2,4.074767E1,3.7499335E0,1.2249403E1,8.3747217E2,8.6992035E1,6.24955E0,2.2473228E2,3.1896994E2,6.4907746E0,4.993453E0,5.244942E1,2.0657275E2,3.9983523E0,4.4977946E0,1.7521077E2,9.1478264E1,3.1993572E1,8.247985E0,6.848357E1,2.6167184E2,5.1485207E1,2.924182E1,6.8970215E1,2.7238588E1,1.3640457E2,1.3738728E1,3.3885318E2,8.971208E1,1.8497447E2,5.0242073E1,5.948966E1,2.4998503E1,2.1347768E2,5.1245644E1,4.6469534E2,2.7496727E1,8.924673E2,9.499521E0,3.4997913E1,5.7497563E0,3.9997919E0,8.249612E0,3.252392E2,5.12233E2,3.7498126E0,8.3242226E1,1.90485E2,3.4247272E1,3.9997792E0,3.1497015E2],"tree_param":{"num_deleted":"0","num_feature":"18","num_nodes":"103","size_leaf_vector":"1"}},{"base_weights":[-1.605201E-3,-2.6055026E-1,3.2713526E-1,-4.261126E-1,-1.1324928E-1,1.9679E-1,5.8097243E-1,-5.686952E-1,-3.4258395E-1,6.841468E-1,-1.217693E-1,9.2015214E-2,2.506034E-1,5.26723E-1,7.6207554E-1,-4.8571697E-1,-7.7675813E-1,-6.174054E-1,-3.0795226E-1,2.5032252E-2,-0E0,-2.817336E-1,-7.874364E-2,-4.7991127E-1,1.2093388E-1,4.5714977E-1,2.0856187E-1,5.440541E-1,4.670928E-2,-2.6185773E-3,8.00908E-1,-7.938655E-1,-4.4103003E-1,-8.0949014E-1,-0E0,-3.9402708E-1,-9.5648557E-1,-3.8922632E-1,-1.9531E-1,1.880329E-1,-3.2450625E-1,-2.1050982E-1,-2.3807282E-2,2.150446E-3,-6.347066E-1,-0E0,2.3377897E-1,-2.727222E-1,5.278653E-1,2.2392201E-1,-1.3688359E-1,6.8162215E-1,4.7223935E-1,-1.7015466E-1,2.7663493E-1,-0E0,8.5348713E-1,-2.7118888E-2,-0E0,-1.7131615E-2,-9.319484E-3,-0E0,-2.5110137E-2,-1.6848218E-2,6.088516E-3,-3.3438213E-2,-0E0,-9.500682E-3,-2.1465177E-2,-6.979317E-3,1.0142329E-2,1.9158851E-2,-2.7242054E-3,-3.1061769E-3,-1.2194377E-2,-8.341161E-3,1.9762118E-3,7.145845E-4,-4.2053047E-3,-1.4480477E-3,-2.4354974E-2,1.7342638E-2,-2.4419054E-3,1.8256022E-2,4.6402616E-3,7.651736E-3,-2.0948349E-2,-0E0,1.9149804E-2,7.209228E-3,-2.594321E-3,-1.0605739E-2,7.867764E-3,-1.2789554E-3,2.1312453E-2,1.7961947E-2,1.0169597E-2,-1.3045197E-2,3.9335336E-3,-8.15665E-3,1.8635495E-2,-1.3165798E-2,1.448022E-2,3.7651393E-3,2.6602134E-2],"categories":[],"categories_nodes":[],"categories_segments":[],"categories_sizes":[],"default_left":[0,0,0,0,0,0,0,0,0,0,0,0,0,0,0,0,0,0,0,0,0,0,0,0,0,0,0,0,0,0,0,0,0,0,0,0,0,0,0,0,0,0,0,0,0,0,0,0,0,0,0,0,0,0,0,0,0,0,0,0,0,0,0,0,0,0,0,0,0,0,0,0,0,0,0,0,0,0,0,0,0,0,0,0,0,0,0,0,0,0,0,0,0,0,0,0,0,0,0,0,0,0,0,0,0],"id":3,"left_children":[1,3,5,7,9,11,13,15,17,19,21,23,25,27,29,31,33,35,37,-1,-1,39,41,43,45,47,49,51,53,-1,55,57,59,61,-1,63,65,67,69,71,73,75,77,-1,79,81,83,85,87,89,91,93,95,97,99,101,103,-1,-1,-1,-1,-1,-1,-1,-1,-1,-1,-1,-1,-1,-1,-1,-1,-1,-1,-1,-1,-1,-1,-1,-1,-1,-1,-1,-1,-1,-1,-1,-1,-1,-1,-1,-1,-1,-1,-1,-1,-1,-1,-1,-1,-1,-1,-1,-1],"loss_changes":[4.515968E2,7.178726E1,7.6288605E1,1.5304245E1,1.0321037E1,8.345943E0,5.6599426E0,6.746567E0,7.15213E0,1.3299599E0,1.0357376E1,8.608019E0,7.9663086E0,4.4983673E0,6.5640182E0,3.1826477E0,3.558876E0,5.0329475E0,6.5545654E0,0E0,0E0,6.8035984E0,8.731388E0,2.7454705E0,7.2007494E0,9.117657E0,4.668583E0,4.071884E0,1.4835215E0,0E0,7.0562515E0,2.899994E0,4.390396E0,2.6739807E0,0E0,6.7877417E0,4.6925697E0,9.293991E0,6.8815117E0,3.9932153E0,4.8622437E0,6.953601E0,5.015312E0,0E0,1.2164431E0,1.1220846E1,7.021101E0,4.1109095E0,8.8672905E0,4.361706E0,3.2803779E0,4.7840424E0,5.4260254E0,1.3938448E0,3.614224E0,3.0154507E0,2.5569763E0,0E0,0E0,0E0,0E0,0E0,0E0,0E0,0E0,0E0,0E0,0E0,0E0,0E0,0E0,0E0,0E0,0E0,0E0,0E0,0E0,0E0,0E0,0E0,0E0,0E0,0E0,0E0,0E0,0E0,0E0,0E0,0E0,0E0,0E0,0E0,0E0,0E0,0E0,0E0,0E0,0E0,0E0,0E0,0E0,0E0,0E0,0E0,0E0],"parents":[2147483647,0,0,1,1,2,2,3,3,4,4,5,5,6,6,7,7,8,8,9,9,10,10,11,11,12,12,13,13,14,14,15,15,16,16,17,17,18,18,21,21,22,22,23,23,24,24,25,25,26,26,27,27,28,28,30,30,31,31,32,32,33,33,35,35,36,36,37,37,38,38,39,39,40,40,41,41,42,42,44,44,45,45,46,46,47,47,48,48,49,49,50,50,51,51,52,52,53,53,54,54,55,55,56,56],"right_children":[2,4,6,8,10,12,14,16,18,20,22,24,26,28,30,32,34,36,38,-1,-1,40,42,44,46,48,50,52,54,-1,56,58,60,62,-1,64,66,68,70,72,74,76,78,-1,80,82,84,86,88,90,92,94,96,98,100,102,104,-1,-1,-1,-1,-1,-1,-1,-1,-1,-1,-1,-1,-1,-1,-1,-1,-1,-1,-1,-1,-1,-1,-1,-1,-1,-1,-1,-1,-1,-1,-1,-1,-1,-1,-1,-1,-1,-1,-1,-1,-1,-1,-1,-1,-1,-1,-1,-1],"split_conditions":[1.98E0,1.72E0,2.3E0,1.58E0,1.5846616E0,2.04E0,6.3795714E0,2.75E0,4.876161E-2,3.65E2,-1.4789698E0,-5.0496334E-1,1.91E0,3.8852754E0,-6.9348127E-1,4.5E1,6.788501E-1,4.4105098E-1,3E2,2.5032252E-2,-0E0,4.807084E-2,1.79E0,5.14809E-2,2.41E2,1.816E0,4.84E2,-3.2653475E-1,5.7440925E-2,-2.6185773E-3,-2.1706762E0,3.5311828E0,-2.6314798E-1,-4.0942082E0,-0E0,5.6852794E-1,5.25E0,5.807028E-1,6.9083154E-1,1.85E2,1.864E0,4.15E2,7.043344E-2,2.150446E-3,9.3E1,2.5E1,1.67E0,2.09E0,1.06E2,4.84E2,3.9E0,3.6960785E0,4.5528207E0,2.57E0,5.9E1,-1.4714898E-1,1.79E0,-2.7118888E-2,-0E0,-1.7131615E-2,-9.319484E-3,-0E0,-2.5110137E-2,-1.6848218E-2,6.088516E-3,-3.3438213E-2,-0E0,-9.500682E-3,-2.1465177E-2,-6.979317E-3,1.0142329E-2,1.9158851E-2,-2.7242054E-3,-3.1061769E-3,-1.2194377E-2,-8.341161E-3,1.9762118E-3,7.145845E-4,-4.2053047E-3,-1.4480477E-3,-2.4354974E-2,1.7342638E-2,-2.4419054E-3,1.8256022E-2,4.6402616E-3,7.651736E-3,-2.0948349E-2,-0E0,1.9149804E-2,7.209228E-3,-2.594321E-3,-1.0605739E-2,7.867764E-3,-1.2789554E-3,2.1312453E-2,1.7961947E-2,1.0169597E-2,-1.3045197E-2,3.9335336E-3,-8.15665E-3,1.8635495E-2,-1.3165798E-2,1.448022E-2,3.7651393E-3,2.6602134E-2],"split_indices":[17,17,17,17,6,17,5,0,3,11,8,7,2,8,7,11,9,8,11,0,0,3,17,3,12,15,12,9,3,0,8,5,8,8,0,9,2,9,9,11,15,11,3,0,11,12,0,17,11,11,1,5,5,17,11,7,15,0,0,0,0,0,0,0,0,0,0,0,0,0,0,0,0,0,0,0,0,0,0,0,0,0,0,0,0,0,0,0,0,0,0,0,0,0,0,0,0,0,0,0,0,0,0,0,0],"split_type":[0,0,0,0,0,0,0,0,0,0,0,0,0,0,0,0,0,0,0,0,0,0,0,0,0,0,0,0,0,0,0,0,0,0,0,0,0,0,0,0,0,0,0,0,0,0,0,0,0,0,0,0,0,0,0,0,0,0,0,0,0,0,0,0,0,0,0,0,0,0,0,0,0,0,0,0,0,0,0,0,0,0,0,0,0,0,0,0,0,0,0,0,0,0,0,0,0,0,0,0,0,0,0,0,0],"sum_hessian":[5.301837E3,2.9676836E3,2.334153E3,1.3922535E3,1.5754299E3,1.5471714E3,7.869818E2,5.0560394E2,8.866496E2,1.3737719E1,1.5616923E3,5.331432E2,1.01402814E3,6.158443E2,1.7113748E2,3.696557E2,1.3594826E2,9.222928E1,7.9442035E2,1.0490149E1,3.24757E0,3.2373734E2,1.237955E3,2.249466E1,5.1064856E2,1.6413141E2,8.498967E2,5.921156E2,2.3728703E1,6.2472706E0,1.648902E2,3.9736465E1,3.2991922E2,1.3044896E2,5.4993033E0,5.9985466E1,3.2243816E1,4.5345395E2,3.4096637E2,2.4498772E1,2.9923856E2,3.5723984E2,8.807151E2,3.749066E0,1.8745594E1,2.4370918E2,2.6693936E2,1.2743926E1,1.5138748E2,8.171603E2,3.2736446E1,1.9248494E2,3.9963068E2,1.0240569E1,1.3488133E1,1.0242358E1,1.5464784E2,3.3737972E1,5.998494E0,1.5796085E2,1.7195837E2,4.7479267E0,1.2570103E2,4.8237976E1,1.174749E1,2.699429E1,5.2495255E0,3.7671136E2,7.674258E1,3.2146805E2,1.9498335E1,9.749534E0,1.4749238E1,8.549717E1,2.137414E2,2.8999216E2,6.724767E1,6.199744E2,2.6074066E2,6.248483E0,1.249711E1,2.7245499E1,2.1646368E2,4.1988834E1,2.2495053E2,4.997452E0,7.7464743E0,2.673134E1,1.2465614E2,7.7967554E2,3.7484787E1,2.2991425E1,9.745022E0,5.9950233E0,1.8648991E2,1.9758197E2,2.0204869E2,6.7462044E0,3.494365E0,4.2467284E0,9.2414055E0,5.4957976E0,4.7465606E0,8.485772E0,1.4616208E2],"tree_param":{"num_deleted":"0","num_feature":"18","num_nodes":"105","size_leaf_vector":"1"}},{"base_weights":[1.0632523E-2,-1.8686289E-1,4.0076903E-1,-3.3865964E-1,-1.8162133E-2,6.073616E-1,2.7863774E-1,-4.5828596E-1,-2.6730585E-1,3.256769E-2,-1.0557634E-1,1.0150137E0,5.6216425E-1,4.931738E-1,2.3152252E-1,-4.148601E-1,-7.16671E-1,-2.8047803E-1,1.6919367E-1,1.7336369E-1,-2.1850182E-2,3.2443336E-1,-1.326743E-1,-0E0,1.092646E0,5.7389313E-1,-0E0,7.4497454E-2,6.3471144E-1,2.5275242E-1,-1.277343E-1,-2.8946835E-1,-4.9711254E-1,-7.885054E-1,-0E0,-3.4359625E-1,-1.8611062E-1,7.8003037E-1,-1.2737025E-1,-8.9082815E-2,2.5432527E-1,4.439672E-2,-1.8680407E-1,5.177097E-1,-1.5042274E-1,-2.5520116E-1,-1.9057354E-2,1.294184E-3,3.409791E-2,5.0128055E-1,6.890536E-1,-1.0500456E-2,1.03805205E-2,-3.553258E-1,2.2426629E-1,6.615414E-1,-1.3123505E-3,3.992549E-1,2.0292927E-1,-1.8509677E-2,-2.6294801E-2,-1.3393942E-2,-4.274612E-3,-2.922644E-4,-1.5954243E-2,-2.644462E-2,-0E0,-8.443291E-3,1.1709874E-2,-1.0751626E-2,1.0340719E-2,-1.2960795E-3,-8.1691425E-3,3.1714916E-2,-0E0,1.8742614E-3,-1.6430492E-2,-9.241038E-3,1.1068617E-2,9.030774E-3,-7.648453E-3,2.0321263E-3,-1.3011197E-2,-7.1004936E-3,1.5829107E-2,2.4167191E-2,-0E0,-1.2106492E-2,-0E0,-1.5953923E-2,-3.568247E-3,-7.7286726E-3,1.2546794E-3,2.6609216E-2,1.36531E-2,2.1297358E-2,-0E0,-2.2468703E-2,3.446342E-3,2.0458858E-2,-0E0,2.1855721E-2,6.7625856E-3,7.1948622E-3,2.0369284E-2,1.151278E-2,4.966532E-3,9.275893E-3,-4.290964E-3],"categories":[],"categories_nodes":[],"categories_segments":[],"categories_sizes":[],"default_left":[0,0,0,0,0,0,0,0,0,0,0,0,0,0,0,0,0,0,0,0,0,0,0,0,0,0,0,0,0,0,0,0,0,0,0,0,0,0,0,0,0,0,0,0,0,0,0,0,0,0,0,0,0,0,0,0,0,0,0,0,0,0,0,0,0,0,0,0,0,0,0,0,0,0,0,0,0,0,0,0,0,0,0,0,0,0,0,0,0,0,0,0,0,0,0,0,0,0,0,0,0,0,0,0,0,0,0,0,0],"id":4,"left_children":[1,3,5,7,9,11,13,15,17,19,21,23,25,27,29,31,33,35,37,39,41,43,45,-1,47,49,51,53,55,57,59,61,63,65,67,69,71,73,75,77,79,81,83,85,87,89,91,-1,-1,93,95,-1,-1,97,99,101,-1,103,105,107,-1,-1,-1,-1,-1,-1,-1,-1,-1,-1,-1,-1,-1,-1,-1,-1,-1,-1,-1,-1,-1,-1,-1,-1,-1,-1,-1,-1,-1,-1,-1,-1,-1,-1,-1,-1,-1,-1,-1,-1,-1,-1,-1,-1,-1,-1,-1,-1,-1],"loss_changes":[4.088243E2,8.975181E1,4.3788666E1,1.4813614E1,7.494537E0,9.406601E0,1.044799E1,5.9358826E0,6.923668E0,8.221723E0,7.138877E0,4.018486E0,4.118103E0,1.0900589E1,7.301136E0,5.038231E0,4.9962234E0,6.115204E0,6.8741937E0,6.5571365E0,8.41621E0,3.7581692E0,7.9082184E0,0E0,1.3051605E0,3.0303802E0,1.9067035E0,3.5014746E0,3.325325E0,5.686035E0,3.2210917E0,4.922821E0,5.3714066E0,5.696556E0,1.3524034E0,7.1086884E0,5.4065E0,2.046184E0,2.388788E0,7.0850477E0,5.710209E0,5.6786757E0,7.8421702E0,3.6331887E0,7.858954E-1,9.728098E0,4.7649274E0,0E0,0E0,4.4918137E0,3.673706E0,0E0,0E0,3.210456E0,4.809544E0,2.8531113E0,0E0,8.437111E0,3.8427029E0,1.8596805E0,0E0,0E0,0E0,0E0,0E0,0E0,0E0,0E0,0E0,0E0,0E0,0E0,0E0,0E0,0E0,0E0,0E0,0E0,0E0,0E0,0E0,0E0,0E0,0E0,0E0,0E0,0E0,0E0,0E0,0E0,0E0,0E0,0E0,0E0,0E0,0E0,0E0,0E0,0E0,0E0,0E0,0E0,0E0,0E0,0E0,0E0,0E0,0E0,0E0],"parents":[2147483647,0,0,1,1,2,2,3,3,4,4,5,5,6,6,7,7,8,8,9,9,10,10,11,11,12,12,13,13,14,14,15,15,16,16,17,17,18,18,19,19,20,20,21,21,22,22,24,24,25,25,26,26,27,27,28,28,29,29,30,30,31,31,32,32,33,33,34,34,35,35,36,36,37,37,38,38,39,39,40,40,41,41,42,42,43,43,44,44,45,45,46,46,49,49,50,50,53,53,54,54,55,55,57,57,58,58,59,59],"right_children":[2,4,6,8,10,12,14,16,18,20,22,24,26,28,30,32,34,36,38,40,42,44,46,-1,48,50,52,54,56,58,60,62,64,66,68,70,72,74,76,78,80,82,84,86,88,90,92,-1,-1,94,96,-1,-1,98,100,102,-1,104,106,108,-1,-1,-1,-1,-1,-1,-1,-1,-1,-1,-1,-1,-1,-1,-1,-1,-1,-1,-1,-1,-1,-1,-1,-1,-1,-1,-1,-1,-1,-1,-1,-1,-1,-1,-1,-1,-1,-1,-1,-1,-1,-1,-1,-1,-1,-1,-1,-1,-1],"split_conditions":[2.04E0,1.79E0,1.6E0,1.62E0,1.98E0,-2E0,1.91E0,1.9741694E0,6.421656E0,1.862E0,3.417244E0,-6.168259E-1,4.430956E0,1.55E2,4.8E2,-2.4407753E-1,3.560606E0,3.05E2,-4.3156218E-2,1.796E0,7.232538E-2,2.048E0,-1.7763685E-1,-0E0,1.79E0,2.63E0,1.79E0,-3.3615756E-1,4.92E2,-3.4031415E-1,3.3692203E0,1.942E0,4.7551878E-2,7.261411E-1,2.73E2,8.282139E-1,2.9E0,2.13E0,7.93609E0,3.7E0,4.75E2,4.795756E0,7.5E-1,2.81E2,2.09E0,5.4154996E-2,-3.3665836E-1,1.294184E-3,3.409791E-2,1.822E0,9.714795E-2,-1.0500456E-2,1.03805205E-2,4.43666E0,2.09E0,2.022E0,-1.3123505E-3,2.92E2,5.1337987E-2,5.2739374E-2,-2.6294801E-2,-1.3393942E-2,-4.274612E-3,-2.922644E-4,-1.5954243E-2,-2.644462E-2,-0E0,-8.443291E-3,1.1709874E-2,-1.0751626E-2,1.0340719E-2,-1.2960795E-3,-8.1691425E-3,3.1714916E-2,-0E0,1.8742614E-3,-1.6430492E-2,-9.241038E-3,1.1068617E-2,9.030774E-3,-7.648453E-3,2.0321263E-3,-1.3011197E-2,-7.1004936E-3,1.5829107E-2,2.4167191E-2,-0E0,-1.2106492E-2,-0E0,-1.5953923E-2,-3.568247E-3,-7.7286726E-3,1.2546794E-3,2.6609216E-2,1.36531E-2,2.1297358E-2,-0E0,-2.2468703E-2,3.446342E-3,2.0458858E-2,-0E0,2.1855721E-2,6.7625856E-3,7.1948622E-3,2.0369284E-2,1.151278E-2,4.966532E-3,9.275893E-3,-4.290964E-3],"split_indices":[17,17,16,17,16,13,2,10,6,14,5,7,10,11,11,7,5,11,8,14,3,14,10,0,15,17,2,10,11,7,8,14,3,7,11,7,2,16,6,2,11,5,13,11,14,3,7,0,0,15,3,0,0,5,17,14,0,11,3,3,0,0,0,0,0,0,0,0,0,0,0,0,0,0,0,0,0,0,0,0,0,0,0,0,0,0,0,0,0,0,0,0,0,0,0,0,0,0,0,0,0,0,0,0,0,0,0,0,0],"split_type":[0,0,0,0,0,0,0,0,0,0,0,0,0,0,0,0,0,0,0,0,0,0,0,0,0,0,0,0,0,0,0,0,0,0,0,0,0,0,0,0,0,0,0,0,0,0,0,0,0,0,0,0,0,0,0,0,0,0,0,0,0,0,0,0,0,0,0,0,0,0,0,0,0,0,0,0,0,0,0,0,0,0,0,0,0,0,0,0,0,0,0,0,0,0,0,0,0,0,0,0,0,0,0,0,0,0,0,0,0],"sum_hessian":[5.2992295E3,3.5172178E3,1.7820116E3,1.8471824E3,1.6700353E3,6.560793E2,1.1259324E3,6.808542E2,1.1663282E3,1.0503132E3,6.197221E2,5.89896E1,5.9708966E2,1.9551387E2,9.304185E2,5.9066455E2,9.0189575E1,1.1350809E3,3.124735E1,2.9668958E2,7.536236E2,3.3249363E1,5.864727E2,4.9928007E0,5.3996803E1,5.8535596E2,1.1733729E1,5.1952717E1,1.4356116E2,8.8169226E2,4.8726265E1,2.4237158E2,3.48293E2,8.2193275E1,7.9962983E0,6.706402E2,4.6444067E2,1.0248951E1,2.09984E1,6.698799E1,2.2970158E2,5.344024E2,2.1922119E2,2.4999468E1,8.249893E0,2.7673846E2,3.0973428E2,3.2441998E0,5.07526E1,3.7088788E2,2.1446806E2,6.242232E0,5.491498E0,1.0990116E1,4.09626E1,1.3956573E2,3.995414E0,2.1510092E2,6.665913E2,4.5477287E1,3.2489781E0,1.11932945E2,1.3043863E2,2.5232637E1,3.2306036E2,7.269944E1,9.493838E0,4.4981065E0,3.498192E0,6.588921E2,1.1748125E1,1.8022905E2,2.842116E2,6.4995193E0,3.7494314E0,1.399894E1,6.99946E0,4.7242992E1,1.9744997E1,2.1295496E2,1.6746624E1,5.1315845E2,2.1243965E1,2.0747346E2,1.1747736E1,1.4749687E1,1.0249782E1,4.249952E0,3.9999416E0,8.699693E1,1.8974155E2,6.499736E1,2.4473691E2,3.344745E1,3.3744043E2,2.0922401E2,5.2440457E0,6.4943995E0,4.495716E0,1.2987706E1,2.7974894E1,1.1783409E2,2.1731653E1,1.4165494E2,7.344598E1,1.064269E2,5.601644E2,9.494304E0,3.5982983E1],"tree_param":{"num_deleted":"0","num_feature":"18","num_nodes":"109","size_leaf_vector":"1"}},{"base_weights":[1.5499389E-3,-2.2753526E-1,2.8991753E-1,-3.7502876E-1,-9.528394E-2,1.8982396E-1,5.4044014E-1,-3.442038E-1,-5.300827E-1,9.054312E-1,-1.0511481E-1,9.568883E-2,2.7177677E-1,5.7112026E-1,7.737864E-2,-1.2291749E-1,-3.6127394E-1,-9.20116E-1,-4.3449423E-1,7.4970974E-3,3.6596294E-2,-8.998618E-2,-4.3278208E-1,5.0194025E-1,6.766784E-2,-6.218897E-2,2.8332606E-1,4.6320543E-1,7.102246E-1,-2.2865084E-1,3.632409E-1,2.3108412E-1,-2.7609354E-1,-3.4063587E-1,-6.663307E-1,-0E0,-1.0316541E0,-8.575569E-1,-3.407748E-1,-1.8628842E-1,-5.0517026E-2,-6.288681E-1,1.1697213E-1,-1.4378106E-2,6.787361E-1,-3.7072104E-1,8.917678E-2,1.2442929E-2,-2.6100102E-1,4.2528352E-1,2.5033143E-1,6.046928E-1,3.5720938E-1,5.0879997E-1,8.585106E-1,-2.2931945E-2,3.4388173E-2,2.8792305E-2,6.225681E-1,1.50497975E-2,-4.6983645E-3,8.395905E-4,-1.6358119E-2,-1.0897363E-2,-3.2293026E-3,-0E0,-2.388473E-2,-5.635662E-3,-3.475769E-2,-3.0833827E-2,-4.9160114E-3,-5.338044E-3,-1.6566148E-2,-2.2441929E-3,-9.629316E-3,-2.133383E-3,1.4466057E-2,1.2117772E-4,-2.190954E-2,1.7515255E-2,-3.773188E-3,-0E0,2.3232358E-2,3.8625663E-3,-1.7155172E-2,9.081259E-4,7.25265E-3,-1.7093949E-2,-0E0,-6.0726246E-3,1.4029834E-2,8.218917E-3,-6.670928E-3,-1.9798901E-4,1.9025715E-2,-0E0,1.2641605E-2,1.7569339E-2,-1.00596445E-2,2.6309581E-2,-0E0,-1.4667123E-2,1.1313352E-2,8.937592E-3,-8.8126855E-3,1.920579E-3,2.8193582E-2],"categories":[],"categories_nodes":[],"categories_segments":[],"categories_sizes":[],"default_left":[0,0,0,0,0,0,0,0,0,0,0,0,0,0,0,0,0,0,0,0,0,0,0,0,0,0,0,0,0,0,0,0,0,0,0,0,0,0,0,0,0,0,0,0,0,0,0,0,0,0,0,0,0,0,0,0,0,0,0,0,0,0,0,0,0,0,0,0,0,0,0,0,0,0,0,0,0,0,0,0,0,0,0,0,0,0,0,0,0,0,0,0,0,0,0,0,0,0,0,0,0,0,0,0,0,0,0],"id":5,"left_children":[1,3,5,7,9,11,13,15,17,19,21,23,25,27,29,31,33,35,37,-1,-1,39,41,43,45,47,49,51,53,55,57,59,61,63,65,-1,67,69,71,73,75,77,79,-1,81,83,85,-1,87,89,91,93,95,97,99,-1,101,103,105,-1,-1,-1,-1,-1,-1,-1,-1,-1,-1,-1,-1,-1,-1,-1,-1,-1,-1,-1,-1,-1,-1,-1,-1,-1,-1,-1,-1,-1,-1,-1,-1,-1,-1,-1,-1,-1,-1,-1,-1,-1,-1,-1,-1,-1,-1,-1,-1],"loss_changes":[3.516141E2,5.7269455E1,5.8190826E1,5.437195E0,1.4824364E1,1.2623745E1,8.770264E0,3.870346E0,6.1436157E0,9.054146E-1,7.114586E0,8.419647E0,3.7164536E0,7.5549316E0,4.3180175E0,5.1324863E0,5.3815765E0,3.3838158E0,5.5366096E0,0E0,0E0,5.4197416E0,7.6924534E0,9.30229E0,6.846291E0,2.7871962E0,3.187996E0,4.033722E0,5.6851044E0,3.8428984E0,1.5856063E0,3.3074753E0,6.009491E0,4.851143E0,6.2360363E0,0E0,1.9634132E0,2.0407581E0,4.4573917E0,5.9519997E0,1.1388345E1,3.9263344E0,2.5881088E0,0E0,2.9784298E0,3.9293294E0,6.1636224E0,0E0,2.4092484E0,4.5926228E0,8.180561E0,3.3060722E0,4.7149773E0,8.445896E0,2.224968E0,0E0,2.98786E0,1.5009162E0,1.1755333E0,0E0,0E0,0E0,0E0,0E0,0E0,0E0,0E0,0E0,0E0,0E0,0E0,0E0,0E0,0E0,0E0,0E0,0E0,0E0,0E0,0E0,0E0,0E0,0E0,0E0,0E0,0E0,0E0,0E0,0E0,0E0,0E0,0E0,0E0,0E0,0E0,0E0,0E0,0E0,0E0,0E0,0E0,0E0,0E0,0E0,0E0,0E0,0E0],"parents":[2147483647,0,0,1,1,2,2,3,3,4,4,5,5,6,6,7,7,8,8,9,9,10,10,11,11,12,12,13,13,14,14,15,15,16,16,17,17,18,18,21,21,22,22,23,23,24,24,25,25,26,26,27,27,28,28,29,29,30,30,31,31,32,32,33,33,34,34,36,36,37,37,38,38,39,39,40,40,41,41,42,42,44,44,45,45,46,46,48,48,49,49,50,50,51,51,52,52,53,53,54,54,56,56,57,57,58,58],"right_children":[2,4,6,8,10,12,14,16,18,20,22,24,26,28,30,32,34,36,38,-1,-1,40,42,44,46,48,50,52,54,56,58,60,62,64,66,-1,68,70,72,74,76,78,80,-1,82,84,86,-1,88,90,92,94,96,98,100,-1,102,104,106,-1,-1,-1,-1,-1,-1,-1,-1,-1,-1,-1,-1,-1,-1,-1,-1,-1,-1,-1,-1,-1,-1,-1,-1,-1,-1,-1,-1,-1,-1,-1,-1,-1,-1,-1,-1,-1,-1,-1,-1,-1,-1,-1,-1,-1,-1,-1,-1],"split_conditions":[1.98E0,1.72E0,2.32E0,1.7712845E0,1.5846616E0,2.08E0,3.023572E0,1.8494152E0,5.044102E-2,4.33E0,4.84E2,2.5E1,1.76E0,2.63E0,1.902E0,5.3735632E-2,4.787645E0,-4.9982682E-1,-2.349949E0,7.4970974E-3,3.6596294E-2,1.79E0,4.9130988E-1,-2.7315614E0,4.3E1,-1.0513053E0,5.1337987E-2,-2.631579E-1,1.6075033E-1,1.55E2,4.986607E0,3.46E2,1.906E0,2.07E0,1.806E0,-0E0,1.52E0,3.96E2,2.32E0,6.0393557E-2,7.3238623E-1,-2.7062054E0,3.5724242E0,-1.4378106E-2,5.1337987E-2,-7.064442E-1,4.0630302E0,1.2442929E-2,2.8E2,4.1269843E-2,2.06E0,-2.7847512E0,-1.5660036E-1,4.56E2,2.6522188E0,-2.2931945E-2,-3.9768618E-1,4.4215517E0,1.5246964E0,1.50497975E-2,-4.6983645E-3,8.395905E-4,-1.6358119E-2,-1.0897363E-2,-3.2293026E-3,-0E0,-2.388473E-2,-5.635662E-3,-3.475769E-2,-3.0833827E-2,-4.9160114E-3,-5.338044E-3,-1.6566148E-2,-2.2441929E-3,-9.629316E-3,-2.133383E-3,1.4466057E-2,1.2117772E-4,-2.190954E-2,1.7515255E-2,-3.773188E-3,-0E0,2.3232358E-2,3.8625663E-3,-1.7155172E-2,9.081259E-4,7.25265E-3,-1.7093949E-2,-0E0,-6.0726246E-3,1.4029834E-2,8.218917E-3,-6.670928E-3,-1.9798901E-4,1.9025715E-2,-0E0,1.2641605E-2,1.7569339E-2,-1.00596445E-2,2.6309581E-2,-0E0,-1.4667123E-2,1.1313352E-2,8.937592E-3,-8.8126855E-3,1.920579E-3,2.8193582E-2],"split_indices":[17,17,17,10,6,17,10,4,3,1,11,12,15,17,15,3,6,9,8,0,0,17,9,8,12,10,3,9,8,11,5,11,15,15,15,0,17,11,16,3,9,10,5,0,3,10,5,0,12,3,15,8,9,11,10,0,9,5,6,0,0,0,0,0,0,0,0,0,0,0,0,0,0,0,0,0,0,0,0,0,0,0,0,0,0,0,0,0,0,0,0,0,0,0,0,0,0,0,0,0,0,0,0,0,0,0,0],"split_type":[0,0,0,0,0,0,0,0,0,0,0,0,0,0,0,0,0,0,0,0,0,0,0,0,0,0,0,0,0,0,0,0,0,0,0,0,0,0,0,0,0,0,0,0,0,0,0,0,0,0,0,0,0,0,0,0,0,0,0,0,0,0,0,0,0,0,0,0,0,0,0,0,0,0,0,0,0,0,0,0,0,0,0,0,0,0,0,0,0,0,0,0,0,0,0,0,0,0,0,0,0,0,0,0,0,0,0],"sum_hessian":[5.317646E3,2.9617356E3,2.3559102E3,1.3948708E3,1.5668649E3,1.6887109E3,6.671991E2,1.1743063E3,2.2056456E2,1.2480818E1,1.554384E3,7.93637E2,8.950739E2,6.2327765E2,4.392149E1,8.9469154E1,1.0848372E3,3.7960365E1,1.826042E2,6.2406173E0,6.2402005E0,1.4911382E3,6.324578E1,4.672333E1,7.469137E2,2.6731653E1,8.683423E2,3.5991238E2,2.6336523E2,1.9716307E1,2.4205181E1,2.4742249E1,6.4726906E1,1.0231304E3,6.1706787E1,4.994248E0,3.2966118E1,2.8224443E1,1.5437976E2,4.2395035E2,1.0671879E3,4.7746696E1,1.5499085E1,5.747412E0,4.0975918E1,3.1239319E1,7.156744E2,5.7455893E0,2.0986063E1,1.5356227E2,7.1478E2,1.4607805E2,2.1383435E2,1.1829078E2,1.4507446E2,6.489144E0,1.3227163E1,1.3226037E1,1.0979145E1,1.5745086E1,8.997163E0,2.9490055E1,3.5236847E1,9.2769666E2,9.543375E1,9.24484E0,5.246195E1,5.9894366E0,2.6976679E1,2.0731842E1,7.492603E0,9.196369E1,6.241606E1,2.377226E2,1.8622775E2,1.0309403E3,3.6247566E1,5.4996653E0,4.2247032E1,5.749786E0,9.7493E0,4.9966497E0,3.597927E1,7.7470603E0,2.349226E1,5.227911E2,1.9288329E2,1.0243485E1,1.0742578E1,7.7416205E0,1.4582065E2,6.8356165E2,3.1218353E1,5.2353573E0,1.4084268E2,3.4183765E1,1.7965059E2,1.1006782E2,8.222957E0,1.4183583E2,3.2386215E0,3.7423098E0,9.484854E0,8.9834585E0,4.2425785E0,5.9893312E0,4.9898143E0],"tree_param":{"num_deleted":"0","num_feature":"18","num_nodes":"107","size_leaf_vector":"1"}},{"base_weights":[2.3507471E-3,-2.3143028E-1,2.9677668E-1,-1.1796688E-1,-3.903653E-1,2.126247E-1,6.14982E-1,6.9635195E-1,-1.2580045E-1,-3.2161343E-1,-4.8239684E-1,1.11552134E-1,2.8616795E-1,-0E0,6.488547E-1,2.9365439E-2,1.8411261E-3,-2.4166071E-1,-8.931451E-2,-5.5795866E-1,-2.7237582E-1,-6.166658E-1,-3.5871148E-1,4.2227423E-1,8.950766E-2,-0E0,3.0726847E-1,4.856478E-1,-6.508267E-1,4.3047097E-2,6.703118E-1,-1.9171871E-1,-7.0569885E-1,-3.985521E-2,-2.0556709E-1,-6.0570735E-1,1.0799294E-2,-4.6873116E-1,-2.1827231E-1,-5.9995513E-2,-6.5634775E-1,2.940766E-1,-4.0862218E-1,-1.7328022E-2,5.663382E-1,-3.4253728E-1,1.1215175E-1,7.254855E-1,-9.8731756E-2,3.157205E-1,-3.3661705E-1,1.3972512E-2,2.7031478E-2,-2.8732823E-2,-0E0,3.419413E-1,-1.2503721E-2,9.566468E-1,6.2543666E-1,8.446718E-3,-6.805515E-3,6.9911877E-4,-2.7968189E-2,9.429415E-4,-3.961028E-3,-1.0925715E-2,-5.1338697E-4,-1.1169377E-2,-2.4913685E-2,-1.8821396E-2,-6.163292E-3,-4.7439225E-3,-1.3110457E-2,8.448569E-3,-1.110765E-2,-5.392343E-3,-2.0497773E-2,-0E0,2.0132443E-2,-1.4038827E-2,3.0641284E-6,-0E0,1.8847127E-2,-0E0,-2.041632E-2,-2.8827888E-4,5.368481E-3,3.0361207E-2,-0E0,-7.4859667E-3,1.5105807E-2,6.9559193E-3,1.1619014E-2,-2.2710873E-2,7.2565157E-4,-3.2018037E-3,1.0230464E-2,2.2109902E-2,-5.0018122E-3,2.2759826E-3,3.178908E-2,1.7138477E-2,2.6176529E-2],"categories":[],"categories_nodes":[],"categories_segments":[],"categories_sizes":[],"default_left":[0,0,0,0,0,0,0,0,0,0,0,0,0,0,0,0,0,0,0,0,0,0,0,0,0,0,0,0,0,0,0,0,0,0,0,0,0,0,0,0,0,0,0,0,0,0,0,0,0,0,0,0,0,0,0,0,0,0,0,0,0,0,0,0,0,0,0,0,0,0,0,0,0,0,0,0,0,0,0,0,0,0,0,0,0,0,0,0,0,0,0,0,0,0,0,0,0,0,0,0,0,0,0],"id":6,"left_children":[1,3,5,7,9,11,13,15,17,19,21,23,25,27,29,-1,-1,31,33,35,37,39,41,43,45,47,49,51,53,55,57,59,61,63,65,67,-1,69,71,73,75,77,79,-1,81,83,85,87,89,91,93,95,-1,-1,-1,97,-1,99,101,-1,-1,-1,-1,-1,-1,-1,-1,-1,-1,-1,-1,-1,-1,-1,-1,-1,-1,-1,-1,-1,-1,-1,-1,-1,-1,-1,-1,-1,-1,-1,-1,-1,-1,-1,-1,-1,-1,-1,-1,-1,-1,-1,-1],"loss_changes":[3.626687E2,5.231903E1,6.1395706E1,1.0568514E1,6.5911407E0,1.3297104E1,9.947922E0,1.6139297E0,6.834511E0,7.119705E0,7.0604324E0,4.814187E0,6.139694E0,9.330385E0,5.193619E0,0E0,0E0,8.117413E0,7.25089E0,5.804638E0,5.423027E0,4.465111E0,9.2948E0,7.6576443E0,7.104512E0,6.32644E0,5.5698776E0,2.4236178E0,2.040545E0,2.8804178E0,2.8933868E0,6.1656055E0,6.938282E0,6.1881595E0,1.1069159E1,4.100048E0,0E0,4.0331917E0,5.4989166E0,2.3876452E0,1.7182922E0,2.2751153E0,6.7049255E0,0E0,1.7096338E0,3.8523307E0,5.9364357E0,2.0232263E0,6.300554E0,5.0717163E0,2.6260166E0,7.491192E-1,0E0,0E0,0E0,3.6677678E0,0E0,3.5125923E0,2.783905E0,0E0,0E0,0E0,0E0,0E0,0E0,0E0,0E0,0E0,0E0,0E0,0E0,0E0,0E0,0E0,0E0,0E0,0E0,0E0,0E0,0E0,0E0,0E0,0E0,0E0,0E0,0E0,0E0,0E0,0E0,0E0,0E0,0E0,0E0,0E0,0E0,0E0,0E0,0E0,0E0,0E0,0E0,0E0,0E0],"parents":[2147483647,0,0,1,1,2,2,3,3,4,4,5,5,6,6,7,7,8,8,9,9,10,10,11,11,12,12,13,13,14,14,17,17,18,18,19,19,20,20,21,21,22,22,23,23,24,24,25,25,26,26,27,27,28,28,29,29,30,30,31,31,32,32,33,33,34,34,35,35,37,37,38,38,39,39,40,40,41,41,42,42,44,44,45,45,46,46,47,47,48,48,49,49,50,50,51,51,55,55,57,57,58,58],"right_children":[2,4,6,8,10,12,14,16,18,20,22,24,26,28,30,-1,-1,32,34,36,38,40,42,44,46,48,50,52,54,56,58,60,62,64,66,68,-1,70,72,74,76,78,80,-1,82,84,86,88,90,92,94,96,-1,-1,-1,98,-1,100,102,-1,-1,-1,-1,-1,-1,-1,-1,-1,-1,-1,-1,-1,-1,-1,-1,-1,-1,-1,-1,-1,-1,-1,-1,-1,-1,-1,-1,-1,-1,-1,-1,-1,-1,-1,-1,-1,-1,-1,-1,-1,-1,-1,-1],"split_conditions":[1.98E0,2.15E0,2.4E0,1.5846616E0,2.32E0,2.08E0,4.6506733E-2,2.596922E-1,-1.3335503E0,5.044102E-2,-4.2317244E-1,2.5E1,-2.4602747E0,1.49E0,1.79E0,2.9365439E-2,1.8411261E-3,4.64E2,7.0055395E-2,7.3238623E-1,9.9E1,-3.7825358E0,2.9E0,-2.7315614E0,4.5E1,5.1E1,5.4527855E0,1.962E0,-2.2590837E-1,1.53E0,5.0925925E-2,3.4E1,-3.5270214E-1,-1.10987484E-1,9.08682E-2,3.3E0,1.0799294E-2,3.17E2,4.04E2,-3.483146E-1,-3.9953226E-1,3.3759198E0,2.08E0,-1.7328022E-2,-4.025974E-1,2.6E2,1.68E2,2.83E2,-7.280081E-2,2.31E2,1.67E0,2.74E2,2.7031478E-2,-2.8732823E-2,-0E0,2.0924574E-1,-1.2503721E-2,6.1E1,3.25E0,8.446718E-3,-6.805515E-3,6.9911877E-4,-2.7968189E-2,9.429415E-4,-3.961028E-3,-1.0925715E-2,-5.1338697E-4,-1.1169377E-2,-2.4913685E-2,-1.8821396E-2,-6.163292E-3,-4.7439225E-3,-1.3110457E-2,8.448569E-3,-1.110765E-2,-5.392343E-3,-2.0497773E-2,-0E0,2.0132443E-2,-1.4038827E-2,3.0641284E-6,-0E0,1.8847127E-2,-0E0,-2.041632E-2,-2.8827888E-4,5.368481E-3,3.0361207E-2,-0E0,-7.4859667E-3,1.5105807E-2,6.9559193E-3,1.1619014E-2,-2.2710873E-2,7.2565157E-4,-3.2018037E-3,1.0230464E-2,2.2109902E-2,-5.0018122E-3,2.2759826E-3,3.178908E-2,1.7138477E-2,2.6176529E-2],"split_indices":[17,16,17,6,16,17,3,9,8,3,8,12,8,16,14,0,0,11,3,9,11,8,1,8,12,12,8,14,7,16,3,11,7,9,3,1,0,12,12,9,7,6,14,0,7,11,11,11,7,12,16,11,0,0,0,9,0,11,17,0,0,0,0,0,0,0,0,0,0,0,0,0,0,0,0,0,0,0,0,0,0,0,0,0,0,0,0,0,0,0,0,0,0,0,0,0,0,0,0,0,0,0,0],"split_type":[0,0,0,0,0,0,0,0,0,0,0,0,0,0,0,0,0,0,0,0,0,0,0,0,0,0,0,0,0,0,0,0,0,0,0,0,0,0,0,0,0,0,0,0,0,0,0,0,0,0,0,0,0,0,0,0,0,0,0,0,0,0,0,0,0,0,0,0,0,0,0,0,0,0,0,0,0,0,0,0,0,0,0,0,0,0,0,0,0,0,0,0,0,0,0,0,0,0,0,0,0,0,0],"sum_hessian":[5.2640137E3,2.9325403E3,2.3314734E3,1.7167395E3,1.2158007E3,1.8489758E3,4.8249765E2,1.3466046E1,1.7032736E3,7.0728265E2,5.08518E2,7.865833E2,1.0623926E3,2.563629E1,4.5686136E2,7.4802423E0,5.9858046E0,3.9866547E2,1.304608E3,1.1487898E2,5.924036E2,2.3612817E2,2.7238983E2,4.6697464E1,7.3988586E2,7.613769E1,9.862548E2,1.5168072E1,1.0468217E1,1.7427938E1,4.3943344E2,3.6442554E2,3.4239918E1,9.2314606E2,3.81462E2,1.1088092E2,3.9980628E0,1.20666E2,4.7173764E2,1.7723413E1,2.1840475E2,1.7229052E1,2.5516077E2,4.2487826E0,4.244868E1,3.324086E1,7.06645E2,8.73454E0,6.740315E1,9.7601544E2,1.0239373E1,9.198288E0,5.9697843E0,5.981826E0,4.486391E0,1.2191153E1,5.2367854E0,5.1013214E1,3.8842023E2,2.2246065E1,3.4217947E2,7.49748E0,2.674244E1,5.151922E2,4.079538E2,2.0323016E2,1.7823184E2,5.918337E1,5.169755E1,7.119961E1,4.9466396E1,3.7629565E2,9.544199E1,6.9892926E0,1.0734121E1,1.4479995E1,2.0392476E2,1.0484606E1,6.744446E0,2.2469608E2,3.046469E1,3.995759E0,3.8452923E1,1.7995098E1,1.5245761E1,2.4563486E2,4.6101013E2,5.491638E0,3.2429013E0,5.6170334E1,1.1232814E1,4.598021E2,5.162134E2,4.9947352E0,5.2446384E0,5.469369E0,3.7289188E0,7.463118E0,4.7280345E0,6.7205973E0,4.4292618E1,3.273526E2,6.1067627E1],"tree_param":{"num_deleted":"0","num_feature":"18","num_nodes":"103","size_leaf_vector":"1"}},{"base_weights":[3.7395759E-3,-1.7284243E-1,3.4234205E-1,-7.71344E-2,-4.0368503E-1,2.1739754E-1,4.9723837E-1,1.3546972E-2,-1.4413774E-1,-3.6544487E-1,-5.91447E-1,3.5409874E-1,1.785283E-1,5.2494276E-1,5.279016E-2,1.5120257E-1,-4.495659E-2,-1.3028039E-1,-4.9778783E-1,-6.830109E-1,-3.485921E-1,-7.432976E-1,-3.5095096E-1,3.667263E-2,4.7369328E-1,-1.06909975E-1,2.0450518E-1,4.1101328E-1,6.287747E-1,4.9243838E-1,-1.01879574E-1,-5.9704322E-2,2.1961728E-1,-1.9978642E-1,3.775159E-2,-4.7303278E-2,-1.9276051E-1,-6.124125E-1,4.0652463E-3,-8.4765893E-1,-0E0,-3.6026475E-1,-1.0592299E-2,-8.783314E-1,-0E0,2.3487983E-2,-5.788692E-1,-4.9096438E-1,1.367411E-1,7.634687E-1,3.15879E-1,-4.2438594E-1,6.4352944E-2,4.3999478E-1,1.7448013E-1,4.283046E-1,-1.4234543E-1,6.5684235E-1,2.6412746E-2,2.4608899E-2,-0E0,3.2586846E-1,-4.3225867E-1,7.5520785E-3,-8.674977E-3,-1.1163378E-2,7.635781E-3,1.451579E-2,-7.18928E-3,-7.5422046E-3,2.7744297E-3,-3.54035E-3,3.0317681E-3,-8.44816E-3,-2.8155954E-3,-2.1975169E-2,-0E0,-0E0,-2.8853377E-2,-7.891836E-3,-1.2374943E-2,5.315143E-3,-1.3210151E-2,-2.8101357E-2,-0E0,1.2142054E-2,-8.262077E-3,-1.5835382E-2,1.0021145E-2,-2.8678987E-2,-4.2240177E-3,-0E0,-2.116203E-2,1.4862071E-2,-8.9051866E-4,4.8972815E-3,3.1922616E-2,1.5452991E-2,-1.8069707E-3,-0E0,-2.1154376E-2,7.3104333E-3,-1.36028435E-2,1.7279215E-2,-2.621126E-3,-0E0,6.6590775E-3,6.973214E-4,1.3741833E-2,-1.1104719E-2,1.7242366E-3,2.2931471E-2,1.5330061E-2,-1.8240288E-2,1.0462633E-2,-4.8644347E-3,6.2549575E-3,2.3170173E-2,-3.929454E-3,-1.7136814E-2,8.223431E-4],"categories":[],"categories_nodes":[],"categories_segments":[],"categories_sizes":[],"default_left":[0,0,0,0,0,0,0,0,0,0,0,0,0,0,0,0,0,0,0,0,0,0,0,0,0,0,0,0,0,0,0,0,0,0,0,0,0,0,0,0,0,0,0,0,0,0,0,0,0,0,0,0,0,0,0,0,0,0,0,0,0,0,0,0,0,0,0,0,0,0,0,0,0,0,0,0,0,0,0,0,0,0,0,0,0,0,0,0,0,0,0,0,0,0,0,0,0,0,0,0,0,0,0,0,0,0,0,0,0,0,0,0,0,0,0,0,0,0,0,0,0],"id":7,"left_children":[1,3,5,7,9,11,13,15,17,19,21,23,25,27,29,31,33,35,37,39,41,43,45,47,49,51,53,55,57,59,61,63,65,67,69,71,73,75,-1,77,-1,79,81,83,85,87,89,91,93,95,97,99,101,103,105,107,109,111,113,-1,115,117,119,-1,-1,-1,-1,-1,-1,-1,-1,-1,-1,-1,-1,-1,-1,-1,-1,-1,-1,-1,-1,-1,-1,-1,-1,-1,-1,-1,-1,-1,-1,-1,-1,-1,-1,-1,-1,-1,-1,-1,-1,-1,-1,-1,-1,-1,-1,-1,-1,-1,-1,-1,-1,-1,-1,-1,-1,-1,-1],"loss_changes":[3.1663367E2,7.627098E1,3.421649E1,1.5101443E1,5.9019012E0,4.7200584E0,9.287827E0,8.512992E0,6.2164154E0,3.0589905E0,4.3790894E0,7.669729E0,6.058035E0,7.3876953E0,4.0009866E0,4.7513113E0,9.497212E0,6.869673E0,4.2891665E0,5.074356E0,2.846367E0,9.338959E0,6.5456524E0,3.1420321E0,5.513775E0,3.9305866E0,4.430954E0,3.9566765E0,5.8286285E0,2.2969217E0,5.780793E0,5.57747E0,5.0893316E0,7.0160036E0,7.355072E0,6.3360906E0,6.3976192E0,3.3895798E0,0E0,3.3103828E0,0E0,3.1040878E0,3.0179114E0,4.864502E0,2.0949965E0,4.730374E0,6.0963364E0,4.4282937E-1,3.8784122E0,7.6107845E0,8.44542E0,2.8285618E0,3.8827786E0,6.1875973E0,5.485903E0,3.8594742E0,8.553779E-1,3.7198029E0,4.44082E0,0E0,3.6535567E-1,4.1991205E0,2.0896564E0,0E0,0E0,0E0,0E0,0E0,0E0,0E0,0E0,0E0,0E0,0E0,0E0,0E0,0E0,0E0,0E0,0E0,0E0,0E0,0E0,0E0,0E0,0E0,0E0,0E0,0E0,0E0,0E0,0E0,0E0,0E0,0E0,0E0,0E0,0E0,0E0,0E0,0E0,0E0,0E0,0E0,0E0,0E0,0E0,0E0,0E0,0E0,0E0,0E0,0E0,0E0,0E0,0E0,0E0,0E0,0E0,0E0,0E0],"parents":[2147483647,0,0,1,1,2,2,3,3,4,4,5,5,6,6,7,7,8,8,9,9,10,10,11,11,12,12,13,13,14,14,15,15,16,16,17,17,18,18,19,19,20,20,21,21,22,22,23,23,24,24,25,25,26,26,27,27,28,28,29,29,30,30,31,31,32,32,33,33,34,34,35,35,36,36,37,37,39,39,41,41,42,42,43,43,44,44,45,45,46,46,47,47,48,48,49,49,50,50,51,51,52,52,53,53,54,54,55,55,56,56,57,57,58,58,60,60,61,61,62,62],"right_children":[2,4,6,8,10,12,14,16,18,20,22,24,26,28,30,32,34,36,38,40,42,44,46,48,50,52,54,56,58,60,62,64,66,68,70,72,74,76,-1,78,-1,80,82,84,86,88,90,92,94,96,98,100,102,104,106,108,110,112,114,-1,116,118,120,-1,-1,-1,-1,-1,-1,-1,-1,-1,-1,-1,-1,-1,-1,-1,-1,-1,-1,-1,-1,-1,-1,-1,-1,-1,-1,-1,-1,-1,-1,-1,-1,-1,-1,-1,-1,-1,-1,-1,-1,-1,-1,-1,-1,-1,-1,-1,-1,-1,-1,-1,-1,-1,-1,-1,-1,-1,-1],"split_conditions":[2.04E0,2.2E0,2.3E0,1.98E0,1.8141923E0,5.275974E-2,3.023572E0,5.5555556E-2,4.84E2,1.7E1,5.952381E-2,2.09E0,5.482456E-2,2.5E0,2.0165267E0,3.5813954E0,-2.8668943E-1,-2.7631578E-1,5.77821E-1,7.117689E-2,1.4729334E0,6.6570187E-1,3.2986395E0,-4.8390558E-1,-3.4634975E-1,-2.6046512E-1,1.72E0,7.863995E-1,8.981092E-2,2.45E0,1.49E0,1.912E0,4.3359865E-2,1.67E0,5.872466E-2,3.9970238E0,2.4238095E0,1.4111409E0,4.0652463E-3,-2.455377E0,-0E0,-3.3665836E-1,1.982E0,3.6710527E0,1.854E0,-3.6087486E-1,3.4600694E0,-5.4611653E-1,3.7578948E0,4.887218E-2,1.992E0,5.3735632E-2,2.022E0,2.022E0,2.5384614E0,4.795205E-2,2.6802218E-1,0E0,-4.285567E-1,2.4608899E-2,3.7558687E-1,2.88E0,8E0,7.5520785E-3,-8.674977E-3,-1.1163378E-2,7.635781E-3,1.451579E-2,-7.18928E-3,-7.5422046E-3,2.7744297E-3,-3.54035E-3,3.0317681E-3,-8.44816E-3,-2.8155954E-3,-2.1975169E-2,-0E0,-0E0,-2.8853377E-2,-7.891836E-3,-1.2374943E-2,5.315143E-3,-1.3210151E-2,-2.8101357E-2,-0E0,1.2142054E-2,-8.262077E-3,-1.5835382E-2,1.0021145E-2,-2.8678987E-2,-4.2240177E-3,-0E0,-2.116203E-2,1.4862071E-2,-8.9051866E-4,4.8972815E-3,3.1922616E-2,1.5452991E-2,-1.8069707E-3,-0E0,-2.1154376E-2,7.3104333E-3,-1.36028435E-2,1.7279215E-2,-2.621126E-3,-0E0,6.6590775E-3,6.973214E-4,1.3741833E-2,-1.1104719E-2,1.7242366E-3,2.2931471E-2,1.5330061E-2,-1.8240288E-2,1.0462633E-2,-4.8644347E-3,6.2549575E-3,2.3170173E-2,-3.929454E-3,-1.7136814E-2,8.223431E-4],"split_indices":[17,16,17,16,10,3,10,3,11,11,3,17,3,17,4,5,7,9,9,3,10,7,5,9,9,9,2,7,3,17,16,14,3,2,3,6,4,10,0,10,0,9,14,5,14,9,5,9,5,3,14,3,14,14,6,3,10,9,7,0,9,17,0,0,0,0,0,0,0,0,0,0,0,0,0,0,0,0,0,0,0,0,0,0,0,0,0,0,0,0,0,0,0,0,0,0,0,0,0,0,0,0,0,0,0,0,0,0,0,0,0,0,0,0,0,0,0,0,0,0,0],"split_type":[0,0,0,0,0,0,0,0,0,0,0,0,0,0,0,0,0,0,0,0,0,0,0,0,0,0,0,0,0,0,0,0,0,0,0,0,0,0,0,0,0,0,0,0,0,0,0,0,0,0,0,0,0,0,0,0,0,0,0,0,0,0,0,0,0,0,0,0,0,0,0,0,0,0,0,0,0,0,0,0,0,0,0,0,0,0,0,0,0,0,0,0,0,0,0,0,0,0,0,0,0,0,0,0,0,0,0,0,0,0,0,0,0,0,0,0,0,0,0,0,0],"sum_hessian":[5.2888506E3,3.4747734E3,1.8140769E3,2.461308E3,1.0134654E3,1.0103545E3,8.037225E2,1.0401946E3,1.4211135E3,8.513047E2,1.6216072E2,2.14394E2,7.959605E2,7.5410376E2,4.9618748E1,3.1438596E2,7.258086E2,1.3728832E3,4.8230343E1,3.5926613E1,8.1537805E2,9.428757E1,6.787315E1,6.1674164E1,1.5271983E2,6.2664566E1,7.332959E2,3.6888882E2,3.852149E2,1.3459094E1,3.6159653E1,7.348534E1,2.4090062E2,2.5594283E2,4.6986575E2,5.980966E2,7.747865E2,4.2231552E1,5.9987903E0,2.9686087E1,6.2405267E0,7.851722E2,3.0205853E1,7.9062546E1,1.5225019E1,2.4700283E1,4.317287E1,6.993483E0,5.468068E1,4.890654E1,1.0381329E2,2.2969057E1,3.969551E1,7.60685E1,6.572274E2,3.5990176E2,8.987061E0,3.6630554E2,1.890937E1,6.984699E0,6.4743953E0,1.4450629E1,2.1709024E1,2.9242851E1,4.4242485E1,1.074804E1,2.3015259E2,1.14898205E1,2.44453E2,7.07269E1,3.9913885E2,4.098936E2,1.88203E2,4.0088315E2,3.7390338E2,3.523426E1,6.9972935E0,3.4946187E0,2.6191467E1,2.8535635E2,4.9981586E2,2.0219915E1,9.985938E0,7.481703E1,4.245516E0,5.2398343E0,9.985186E0,7.2354107E0,1.7464872E1,2.0703629E1,2.2469244E1,3.7468545E0,3.2466285E0,1.798234E1,3.669834E1,1.8460386E1,3.0446156E1,6.912074E1,3.4692547E1,1.0236311E1,1.2732746E1,3.1704906E1,7.990604E0,6.1836166E1,1.4232331E1,1.40559E2,5.166684E2,2.7173326E1,3.3272842E2,5.741199E0,3.245861E0,2.020086E2,1.6429694E2,4.7283783E0,1.4180992E1,3.2377784E0,3.236617E0,7.7168546E0,6.733775E0,1.7967228E1,3.7417965E0],"tree_param":{"num_deleted":"0","num_feature":"18","num_nodes":"121","size_leaf_vector":"1"}},{"base_weights":[6.607622E-3,2.3376538E-1,-2.5166968E-1,4.9829063E-1,1.3796696E-1,-1.470268E-1,-3.9575502E-1,4.0001106E-1,6.597827E-1,4.8181507E-1,1.17900066E-1,-1.2912776E-1,-4.7551844E-1,-5.511463E-1,-3.558882E-1,4.5422098E-1,9.126143E-2,5.1470137E-1,8.072446E-1,9.786882E-2,7.0040053E-1,3.4230623E-2,2.0448007E-1,-0E0,-1.6919489E-1,-1.0185467E-1,-6.2481576E-1,1.970319E-1,-6.023283E-1,-3.7587765E-1,-2.2807445E-2,5.764185E-1,3.6696288E-1,-1.5309525E-1,4.7331828E-1,-0E0,5.9233934E-1,-0E0,8.701572E-1,-3.2593963E-1,6.5744424E-1,7.4690324E-1,-0E0,1.05765685E-1,-1.0812551E-1,2.5403458E-1,5.074865E-2,-2.0038497E-2,2.393296E-2,-2.341068E-1,-9.0692826E-2,-6.447947E-1,2.4636805E-1,-0E0,-6.773278E-1,6.3007474E-1,-9.883301E-3,5.538137E-3,-6.3296443E-1,-3.5358313E-1,-6.589863E-1,-1.7419955E-1,5.514062E-1,1.8019808E-2,-1.4002228E-3,-1.8438696E-3,1.2016568E-2,-2.370443E-2,-8.103859E-4,-1.9454536E-3,1.7404307E-2,-1.0974021E-2,9.061425E-3,1.9578854E-2,-5.0958307E-3,-1.8971635E-2,1.5698059E-2,2.7627518E-2,8.876023E-3,-1.7741064E-2,7.5436565E-3,2.6105898E-2,-0E0,-0E0,2.3869792E-2,-1.3330931E-2,3.6591664E-3,-1.0148385E-2,-4.5294742E-4,-0E0,8.649851E-3,4.210658E-3,-8.517667E-3,-8.256116E-3,1.4161286E-3,1.5386508E-2,-7.3217363E-3,-1.4051881E-3,-9.54328E-3,-3.2029722E-2,1.03924416E-4,-7.4105775E-3,1.6115952E-2,-0E0,-2.161602E-2,-0E0,2.7350454E-2,-1.1731889E-2,-2.2622982E-2,-1.0817708E-2,1.0061224E-2,-2.5762603E-2,-2.3835618E-3,-0E0,-2.1641504E-2,-0E0,2.6184859E-2],"categories":[],"categories_nodes":[],"categories_segments":[],"categories_sizes":[],"default_left":[0,0,0,0,0,0,0,0,0,0,0,0,0,0,0,0,0,0,0,0,0,0,0,0,0,0,0,0,0,0,0,0,0,0,0,0,0,0,0,0,0,0,0,0,0,0,0,0,0,0,0,0,0,0,0,0,0,0,0,0,0,0,0,0,0,0,0,0,0,0,0,0,0,0,0,0,0,0,0,0,0,0,0,0,0,0,0,0,0,0,0,0,0,0,0,0,0,0,0,0,0,0,0,0,0,0,0,0,0,0,0,0,0,0,0,0,0],"id":8,"left_children":[1,3,5,7,9,11,13,15,17,19,21,23,25,27,29,31,33,35,37,39,41,43,45,47,49,51,53,55,57,59,61,63,65,67,69,71,73,75,77,79,81,83,-1,85,87,89,91,93,-1,95,97,99,101,-1,103,105,-1,-1,107,109,111,113,115,-1,-1,-1,-1,-1,-1,-1,-1,-1,-1,-1,-1,-1,-1,-1,-1,-1,-1,-1,-1,-1,-1,-1,-1,-1,-1,-1,-1,-1,-1,-1,-1,-1,-1,-1,-1,-1,-1,-1,-1,-1,-1,-1,-1,-1,-1,-1,-1,-1,-1,-1,-1,-1,-1],"loss_changes":[3.101284E2,7.055205E1,3.660756E1,1.0233002E1,1.3582371E1,7.733513E0,5.110367E0,7.2705154E0,3.7270432E0,8.367693E0,1.3967466E1,7.1209354E0,3.0916271E0,8.3964615E0,5.1382065E0,2.8793793E0,7.5364623E0,5.611431E0,7.0527496E0,1.1241839E1,2.810749E0,1.0270732E1,6.9709587E0,5.378014E0,4.9673767E0,5.3468556E0,1.69347E0,3.729961E0,5.293167E0,3.4697495E0,4.3517914E0,2.9906769E0,3.879261E0,2.8439107E0,2.4090586E0,2.6361015E0,6.5562363E0,4.268243E0,1.7553711E0,4.5408497E0,2.1973305E0,2.2329712E0,0E0,5.809491E0,6.765116E0,6.092804E0,7.1651087E0,5.7300515E0,0E0,4.179947E0,4.4329386E0,4.154297E0,2.7434266E0,0E0,1.0150967E0,7.9166627E-1,0E0,0E0,3.708664E0,3.8122253E0,4.9039516E0,3.7284656E0,1.5303335E0,0E0,0E0,0E0,0E0,0E0,0E0,0E0,0E0,0E0,0E0,0E0,0E0,0E0,0E0,0E0,0E0,0E0,0E0,0E0,0E0,0E0,0E0,0E0,0E0,0E0,0E0,0E0,0E0,0E0,0E0,0E0,0E0,0E0,0E0,0E0,0E0,0E0,0E0,0E0,0E0,0E0,0E0,0E0,0E0,0E0,0E0,0E0,0E0,0E0,0E0,0E0,0E0,0E0,0E0],"parents":[2147483647,0,0,1,1,2,2,3,3,4,4,5,5,6,6,7,7,8,8,9,9,10,10,11,11,12,12,13,13,14,14,15,15,16,16,17,17,18,18,19,19,20,20,21,21,22,22,23,23,24,24,25,25,26,26,27,27,28,28,29,29,30,30,31,31,32,32,33,33,34,34,35,35,36,36,37,37,38,38,39,39,40,40,41,41,43,43,44,44,45,45,46,46,47,47,49,49,50,50,51,51,52,52,54,54,55,55,58,58,59,59,60,60,61,61,62,62],"right_children":[2,4,6,8,10,12,14,16,18,20,22,24,26,28,30,32,34,36,38,40,42,44,46,48,50,52,54,56,58,60,62,64,66,68,70,72,74,76,78,80,82,84,-1,86,88,90,92,94,-1,96,98,100,102,-1,104,106,-1,-1,108,110,112,114,116,-1,-1,-1,-1,-1,-1,-1,-1,-1,-1,-1,-1,-1,-1,-1,-1,-1,-1,-1,-1,-1,-1,-1,-1,-1,-1,-1,-1,-1,-1,-1,-1,-1,-1,-1,-1,-1,-1,-1,-1,-1,-1,-1,-1,-1,-1,-1,-1,-1,-1,-1,-1,-1,-1],"split_conditions":[1.97E0,1.61E0,2.2E0,2.63E0,2.5E1,4.74E2,9.2E1,1.7712845E0,6.3795714E0,-4.0918544E-1,2.67E2,-3.9582187E-1,5.3169105E-2,2.5E1,3.7147286E0,-2.973183E-1,2.94E2,1.5246964E0,-2.1706762E0,1.1E1,1.1548854E-1,3.7558687E-1,7.163743E-2,4.65E2,9.872984E-3,4.876161E-2,-3.509968E0,4.4974953E-1,2.9E0,4.964286E0,4.4E2,2.62E0,4.7636367E-2,3.8E1,5.3E1,7.93609E0,6.3112783E0,-7.842637E-1,4.65E2,3.9260902E0,2E1,3.1E1,-0E0,1.89E0,1.76E0,-2.055051E0,4E2,-1.4267843E0,2.393296E-2,1.37E0,2.7045767E0,1.83E0,-1.0914674E0,-0E0,3.417244E0,1.2E1,-9.883301E-3,5.538137E-3,2.256E0,4.658587E0,5.656449E0,3.85E2,-2.6046512E-1,1.8019808E-2,-1.4002228E-3,-1.8438696E-3,1.2016568E-2,-2.370443E-2,-8.103859E-4,-1.9454536E-3,1.7404307E-2,-1.0974021E-2,9.061425E-3,1.9578854E-2,-5.0958307E-3,-1.8971635E-2,1.5698059E-2,2.7627518E-2,8.876023E-3,-1.7741064E-2,7.5436565E-3,2.6105898E-2,-0E0,-0E0,2.3869792E-2,-1.3330931E-2,3.6591664E-3,-1.0148385E-2,-4.5294742E-4,-0E0,8.649851E-3,4.210658E-3,-8.517667E-3,-8.256116E-3,1.4161286E-3,1.5386508E-2,-7.3217363E-3,-1.4051881E-3,-9.54328E-3,-3.2029722E-2,1.03924416E-4,-7.4105775E-3,1.6115952E-2,-0E0,-2.161602E-2,-0E0,2.7350454E-2,-1.1731889E-2,-2.2622982E-2,-1.0817708E-2,1.0061224E-2,-2.5762603E-2,-2.3835618E-3,-0E0,-2.1641504E-2,-0E0,2.6184859E-2],"split_indices":[16,16,16,17,12,12,11,10,5,8,12,9,3,12,5,9,12,6,8,12,3,9,3,12,10,3,8,9,1,6,11,17,3,12,11,4,5,10,12,5,12,11,0,17,0,8,11,8,0,0,10,17,10,0,5,12,0,0,16,8,6,11,9,0,0,0,0,0,0,0,0,0,0,0,0,0,0,0,0,0,0,0,0,0,0,0,0,0,0,0,0,0,0,0,0,0,0,0,0,0,0,0,0,0,0,0,0,0,0,0,0,0,0,0,0,0,0],"split_type":[0,0,0,0,0,0,0,0,0,0,0,0,0,0,0,0,0,0,0,0,0,0,0,0,0,0,0,0,0,0,0,0,0,0,0,0,0,0,0,0,0,0,0,0,0,0,0,0,0,0,0,0,0,0,0,0,0,0,0,0,0,0,0,0,0,0,0,0,0,0,0,0,0,0,0,0,0,0,0,0,0,0,0,0,0,0,0,0,0,0,0,0,0,0,0,0,0,0,0,0,0,0,0,0,0,0,0,0,0,0,0,0,0,0,0,0,0],"sum_hessian":[5.282306E3,2.8126292E3,2.469677E3,7.4277783E2,2.0698513E3,1.4370161E3,1.0326609E3,4.6993484E2,2.7284302E2,1.0884959E2,1.9610017E3,1.3682903E3,6.872579E1,2.0048517E2,8.321757E2,3.9619092E2,7.374394E1,1.454769E2,1.2736611E2,4.2198345E1,6.665124E1,1.0045563E3,9.564455E2,3.2340387E2,1.0448865E3,2.249284E1,4.6232952E1,1.1220885E1,1.8926428E2,7.819864E2,5.018929E1,1.5560597E2,2.4058493E2,4.411192E1,2.9632027E1,2.0132963E1,1.25343925E2,8.715594E0,1.1865052E2,2.3470417E1,1.872793E1,6.340721E1,3.244024E0,6.736038E2,3.3095242E2,7.1738904E2,2.3905641E2,3.1715494E2,6.2489257E0,5.6280804E2,4.820784E2,9.245645E0,1.3247196E1,3.497624E0,4.273533E1,6.983005E0,4.23788E0,5.492371E0,1.8377191E2,7.323451E2,4.9641346E1,4.2198402E1,7.990887E0,1.5139284E2,4.213131E0,1.520593E1,2.25379E2,4.237266E0,3.9874653E1,3.487491E0,2.6144535E1,8.202256E0,1.1930708E1,1.1763838E2,7.7055492E0,4.237572E0,4.4780226E0,1.06305954E2,1.2344566E1,1.7232244E1,6.238172E0,1.2733231E1,5.9946995E0,4.243278E0,5.9163933E1,1.5998382E1,6.576054E2,9.0652214E1,2.4030023E2,8.766159E1,6.297275E2,1.9184106E2,4.721534E1,6.7958755E1,2.4919618E2,4.748964E0,5.580591E2,4.0985443E2,7.2223976E1,5.746102E0,3.4995425E0,3.7493532E0,9.497843E0,3.2489388E0,3.948639E1,3.7399142E0,3.2430909E0,6.6895775E1,1.1687614E2,7.273521E2,4.9929433E0,3.4916428E1,1.4724919E1,3.4456387E1,7.7420144E0,3.9947312E0,3.996156E0],"tree_param":{"num_deleted":"0","num_feature":"18","num_nodes":"117","size_leaf_vector":"1"}},{"base_weights":[-7.869247E-3,-2.3115268E-1,2.7543584E-1,-3.909711E-1,-1.1870938E-1,1.608569E-1,5.0341064E-1,-2.9238656E-1,-4.6424198E-1,-2.033123E-1,-4.960813E-2,6.931191E-2,2.0230003E-1,3.8703248E-1,6.969134E-1,-5.276175E-1,-2.2299899E-1,-0E0,-4.8016113E-1,1.12546206E-1,-2.3785512E-1,7.047348E-1,-5.97685E-2,-6.211485E-2,1.9744714E-1,3.5400206E-1,1.6822182E-1,4.1337502E-1,-0E0,7.128523E-1,-6.924673E-5,-5.9127396E-1,2.9941896E-1,-5.411972E-1,-1.7612903E-1,2.6514405E-1,-4.7648624E-1,-4.2176056E-1,-6.2454945E-1,-3.028856E-1,2.2987005E-1,-4.9942636E-1,-1.930674E-1,2.634872E-2,2.3294198E-3,-2.540134E-1,-2.3629397E-2,3.057337E-1,-1.263407E-1,1.0585042E-1,5.925472E-1,-0E0,4.740324E-1,1.4605078E-1,4.524372E-1,4.245216E-1,-7.945909E-3,-1.9430378E-1,4.421058E-1,-0E0,7.3165506E-1,-2.1664953E-2,-7.937865E-3,-0E0,1.5751783E-2,-2.029549E-2,-0E0,1.7704732E-3,-6.6143004E-3,1.8240204E-2,-0E0,-2.1462044E-2,-0E0,-1.9616807E-2,-1.0801124E-2,3.7511152E-3,-1.99468E-2,8.273292E-3,-2.3291443E-2,-9.260626E-3,1.4976247E-2,-1.7778918E-2,-7.667452E-4,-9.974975E-3,-2.2381584E-3,-1.50267845E-2,-1.4213015E-3,6.92046E-4,-3.5663445E-3,-4.361291E-3,2.4347069E-2,-1.1352542E-3,-1.2417208E-2,1.2277088E-2,-1.7577439E-3,-3.4484256E-3,2.0283729E-2,-1.9776572E-2,4.981292E-3,2.4263365E-2,1.0095771E-2,1.8300976E-3,6.550196E-3,4.469418E-3,1.9756386E-2,1.4904556E-2,8.8105295E-3,3.4323665E-3,-1.6474135E-2,-0E0,2.3992201E-2,-1.4869875E-2,1.8946897E-2,2.3715913E-2,1.1485936E-2],"categories":[],"categories_nodes":[],"categories_segments":[],"categories_sizes":[],"default_left":[0,0,0,0,0,0,0,0,0,0,0,0,0,0,0,0,0,0,0,0,0,0,0,0,0,0,0,0,0,0,0,0,0,0,0,0,0,0,0,0,0,0,0,0,0,0,0,0,0,0,0,0,0,0,0,0,0,0,0,0,0,0,0,0,0,0,0,0,0,0,0,0,0,0,0,0,0,0,0,0,0,0,0,0,0,0,0,0,0,0,0,0,0,0,0,0,0,0,0,0,0,0,0,0,0,0,0,0,0,0,0,0,0,0,0],"id":9,"left_children":[1,3,5,7,9,11,13,15,17,19,21,23,25,27,29,31,33,35,37,39,41,43,45,47,49,51,53,55,57,59,-1,61,63,65,67,69,71,73,75,77,79,81,83,-1,-1,85,87,89,91,93,95,97,99,101,103,105,-1,107,109,111,113,-1,-1,-1,-1,-1,-1,-1,-1,-1,-1,-1,-1,-1,-1,-1,-1,-1,-1,-1,-1,-1,-1,-1,-1,-1,-1,-1,-1,-1,-1,-1,-1,-1,-1,-1,-1,-1,-1,-1,-1,-1,-1,-1,-1,-1,-1,-1,-1,-1,-1,-1,-1,-1,-1],"loss_changes":[3.340024E2,5.2503082E1,5.9920853E1,7.7549744E0,9.906412E0,5.594475E0,1.5807068E1,7.6587906E0,4.938217E0,8.641773E0,6.8551245E0,8.490858E0,4.8431053E0,5.2395554E0,3.889679E0,6.7473946E0,5.2923145E0,3.535037E0,4.032913E0,3.7202103E0,7.3467903E0,1.81849E-1,6.434392E0,5.612454E0,8.398046E0,7.7438793E0,4.785984E0,3.8706741E0,2.7748485E0,3.480606E0,0E0,3.3092766E0,6.84918E-1,3.7279549E0,4.0257235E0,2.1122336E0,9.9897885E-1,5.456497E0,6.2212524E0,5.1745143E0,9.4156475E0,3.6888523E0,9.560825E0,0E0,0E0,6.8375235E0,3.722559E0,8.711932E0,4.852584E0,1.0942808E1,3.4051323E0,5.510744E0,4.70743E0,4.7251396E0,2.6948109E0,3.2299805E0,0E0,3.2393398E0,2.1347845E0,3.7149339E0,3.8132324E0,0E0,0E0,0E0,0E0,0E0,0E0,0E0,0E0,0E0,0E0,0E0,0E0,0E0,0E0,0E0,0E0,0E0,0E0,0E0,0E0,0E0,0E0,0E0,0E0,0E0,0E0,0E0,0E0,0E0,0E0,0E0,0E0,0E0,0E0,0E0,0E0,0E0,0E0,0E0,0E0,0E0,0E0,0E0,0E0,0E0,0E0,0E0,0E0,0E0,0E0,0E0,0E0,0E0,0E0],"parents":[2147483647,0,0,1,1,2,2,3,3,4,4,5,5,6,6,7,7,8,8,9,9,10,10,11,11,12,12,13,13,14,14,15,15,16,16,17,17,18,18,19,19,20,20,21,21,22,22,23,23,24,24,25,25,26,26,27,27,28,28,29,29,31,31,32,32,33,33,34,34,35,35,36,36,37,37,38,38,39,39,40,40,41,41,42,42,45,45,46,46,47,47,48,48,49,49,50,50,51,51,52,52,53,53,54,54,55,55,57,57,58,58,59,59,60,60],"right_children":[2,4,6,8,10,12,14,16,18,20,22,24,26,28,30,32,34,36,38,40,42,44,46,48,50,52,54,56,58,60,-1,62,64,66,68,70,72,74,76,78,80,82,84,-1,-1,86,88,90,92,94,96,98,100,102,104,106,-1,108,110,112,114,-1,-1,-1,-1,-1,-1,-1,-1,-1,-1,-1,-1,-1,-1,-1,-1,-1,-1,-1,-1,-1,-1,-1,-1,-1,-1,-1,-1,-1,-1,-1,-1,-1,-1,-1,-1,-1,-1,-1,-1,-1,-1,-1,-1,-1,-1,-1,-1,-1,-1,-1,-1,-1,-1],"split_conditions":[1.98E0,1.68E0,2.3E0,-4.0238205E-1,1.81E0,2.03E0,2.62E0,1.52E0,2.0232143E0,5.4E1,1.5846616E0,-1.9565727E-1,-3.6559576E-1,3.023572E0,2.07E0,5.5882354E0,-3.6559576E-1,1.982E0,3.3E0,1.8052632E0,1.03E2,0E0,-1.9078972E0,1.723956E0,2.022E0,1.2E2,3.023572E0,8.073654E-1,3.26E2,-6.9348127E-1,-6.924673E-5,-1.0513053E0,4.059381E-1,1.8075498E0,1.816E0,1.63E0,1.6686114E0,9.2E1,-2.9816797E0,2.6E2,1.67E2,3.6E0,1.922E0,2.634872E-2,2.3294198E-3,2.25E0,3.46E2,2.96E2,4.2163744E0,1.862E0,3.526415E0,1.844E0,-1.0061269E0,2.28E2,3.1E0,4.8233695E0,-7.945909E-3,2.4E0,1.71E2,2.8E2,6.25E0,-2.1664953E-2,-7.937865E-3,-0E0,1.5751783E-2,-2.029549E-2,-0E0,1.7704732E-3,-6.6143004E-3,1.8240204E-2,-0E0,-2.1462044E-2,-0E0,-1.9616807E-2,-1.0801124E-2,3.7511152E-3,-1.99468E-2,8.273292E-3,-2.3291443E-2,-9.260626E-3,1.4976247E-2,-1.7778918E-2,-7.667452E-4,-9.974975E-3,-2.2381584E-3,-1.50267845E-2,-1.4213015E-3,6.92046E-4,-3.5663445E-3,-4.361291E-3,2.4347069E-2,-1.1352542E-3,-1.2417208E-2,1.2277088E-2,-1.7577439E-3,-3.4484256E-3,2.0283729E-2,-1.9776572E-2,4.981292E-3,2.4263365E-2,1.0095771E-2,1.8300976E-3,6.550196E-3,4.469418E-3,1.9756386E-2,1.4904556E-2,8.8105295E-3,3.4323665E-3,-1.6474135E-2,-0E0,2.3992201E-2,-1.4869875E-2,1.8946897E-2,2.3715913E-2,1.1485936E-2],"split_indices":[17,17,17,10,17,17,17,17,6,11,6,7,7,10,14,6,7,14,1,4,11,8,8,4,14,11,10,7,12,7,0,10,8,8,15,17,10,11,8,12,12,1,15,0,0,0,11,12,6,14,5,14,10,12,0,5,0,17,11,12,0,0,0,0,0,0,0,0,0,0,0,0,0,0,0,0,0,0,0,0,0,0,0,0,0,0,0,0,0,0,0,0,0,0,0,0,0,0,0,0,0,0,0,0,0,0,0,0,0,0,0,0,0,0,0],"split_type":[0,0,0,0,0,0,0,0,0,0,0,0,0,0,0,0,0,0,0,0,0,0,0,0,0,0,0,0,0,0,0,0,0,0,0,0,0,0,0,0,0,0,0,0,0,0,0,0,0,0,0,0,0,0,0,0,0,0,0,0,0,0,0,0,0,0,0,0,0,0,0,0,0,0,0,0,0,0,0,0,0,0,0,0,0,0,0,0,0,0,0,0,0,0,0,0,0,0,0,0,0,0,0,0,0,0,0,0,0,0,0,0,0,0,0],"sum_hessian":[5.2767446E3,2.953152E3,2.3235928E3,1.2139243E3,1.7392278E3,1.5515763E3,7.720165E2,5.276331E2,6.8629126E2,7.736576E2,9.655702E2,4.927032E2,1.058873E3,4.8905362E2,2.8296286E2,1.13895645E2,4.137375E2,2.3463547E1,6.628277E2,7.296867E1,7.006889E2,9.707483E0,9.558627E2,2.3988364E2,2.5281955E2,1.8540535E2,8.734677E2,4.5912497E2,2.9928663E1,2.780166E2,4.9462614E0,1.07407814E2,6.48783E0,4.767111E1,3.6606638E2,1.52279E1,8.235647E0,4.824568E2,1.8037093E2,1.3495572E1,5.9473106E1,9.620408E1,6.044848E2,5.726688E0,3.9807954E0,1.4370909E2,8.121536E2,3.222527E1,2.0765837E2,2.0935194E2,4.3467598E1,4.8428474E1,1.3697687E2,8.163335E2,5.7134235E1,4.5388806E2,5.236905E0,2.245578E1,7.4728823E0,7.7054305E0,2.7031116E2,7.276892E1,3.4638897E1,3.2432442E0,3.244586E0,3.793307E1,9.738034E0,5.440165E1,3.1166473E2,6.9900665E0,8.237834E0,4.4925275E0,3.743119E0,9.390438E1,3.885524E2,7.73167E0,1.7263925E2,5.4987335E0,7.996838E0,1.8492088E1,4.0981018E1,7.820963E1,1.7994442E1,2.721293E2,3.3235553E2,6.197587E1,8.173323E1,5.3894293E2,2.732107E2,1.6742435E1,1.5482834E1,1.6318011E2,4.4478245E1,7.467843E1,1.3467352E2,3.248957E0,4.021864E1,7.988403E0,4.044007E1,3.4923416E1,1.0205346E2,3.8311862E2,4.3321484E2,2.64658E1,3.0668438E1,2.8381982E2,1.7006824E2,1.122586E1,1.1229921E1,3.240191E0,4.2326913E0,4.227763E0,3.4776673E0,2.266525E2,4.365867E1],"tree_param":{"num_deleted":"0","num_feature":"18","num_nodes":"115","size_leaf_vector":"1"}},{"base_weights":[1.3893807E-2,2.687682E-1,-1.9276229E-1,5.4537237E-1,1.9439074E-1,-9.285908E-2,-3.7757415E-1,1.4511307E-1,5.743785E-1,2.5398964E-1,1.0027729E-1,-1.9364955E-2,-1.492126E-1,-3.4162718E-1,-6.0116297E-1,4.9054918E-1,-2.2184643E-1,8.387119E-1,5.338124E-1,1.7019086E-1,3.2465926E-1,1.1696572E-1,-4.0423372E-1,4.424543E-2,-1.8063563E-1,-5.239462E-2,-2.2293694E-1,-5.2349555E-1,-2.9010886E-1,-0E0,-6.1756283E-1,6.10804E-1,-0E0,-2.110224E-2,-0E0,-0E0,9.172478E-1,6.5754324E-1,4.4724265E-1,3.8664973E-1,1.033024E-1,3.3778065E-1,-4.0763298E-1,6.2266763E-2,2.9400125E-1,1.3740112E-2,-8.4732705E-1,-2.8860921E-2,5.561844E-2,4.0355235E-1,-2.1729158E-1,-3.600623E-1,1.8907744E-2,-2.9692826E-1,-1.1486461E-1,-5.702201E-1,1.754383E-1,-3.2132375E-1,-0E0,-5.308554E-1,-9.3381613E-1,2.9187325E-2,1.586508E-3,6.6228337E-3,-6.9843056E-3,1.4983421E-2,3.228299E-2,2.0451104E-2,-0E0,1.5429511E-2,-0E0,-1.8627984E-3,1.5506422E-2,-5.245238E-3,5.4533803E-3,1.3070225E-2,7.1351686E-3,-2.5209524E-2,-0E0,2.960748E-3,-6.802575E-3,-7.801625E-3,1.049836E-2,-0E0,-3.4202717E-2,4.7919E-3,-7.4622105E-4,1.7620375E-2,-0E0,-1.0711502E-2,-1.1431931E-3,-1.7823208E-2,-5.438941E-3,1.6975097E-3,-2.0332916E-2,-5.8901296E-3,-1.4092217E-2,-5.51463E-3,5.996497E-3,-2.501693E-2,-1.36111695E-2,1.854934E-2,-7.0600943E-3,-1.727301E-2,-8.3236275E-3,2.4808366E-3,-1.755166E-2,1.4051783E-3,-1.7471584E-2,-2.1541144E-3,-3.3293866E-2],"categories":[],"categories_nodes":[],"categories_segments":[],"categories_sizes":[],"default_left":[0,0,0,0,0,0,0,0,0,0,0,0,0,0,0,0,0,0,0,0,0,0,0,0,0,0,0,0,0,0,0,0,0,0,0,0,0,0,0,0,0,0,0,0,0,0,0,0,0,0,0,0,0,0,0,0,0,0,0,0,0,0,0,0,0,0,0,0,0,0,0,0,0,0,0,0,0,0,0,0,0,0,0,0,0,0,0,0,0,0,0,0,0,0,0,0,0,0,0,0,0,0,0,0,0,0,0,0,0,0,0],"id":10,"left_children":[1,3,5,7,9,11,13,15,17,19,21,23,25,27,29,31,33,35,37,39,41,43,45,47,49,51,53,55,57,-1,59,61,-1,-1,63,-1,65,67,69,71,73,75,77,79,81,-1,83,-1,85,87,89,91,93,95,97,99,101,103,105,107,109,-1,-1,-1,-1,-1,-1,-1,-1,-1,-1,-1,-1,-1,-1,-1,-1,-1,-1,-1,-1,-1,-1,-1,-1,-1,-1,-1,-1,-1,-1,-1,-1,-1,-1,-1,-1,-1,-1,-1,-1,-1,-1,-1,-1,-1,-1,-1,-1,-1,-1],"loss_changes":[2.7709378E2,4.754042E1,5.3045998E1,4.866974E0,1.0047462E1,7.653782E0,6.7981873E0,5.365357E0,2.6543732E0,6.1053314E0,5.9733796E0,8.669975E0,7.280285E0,7.148834E0,1.251915E0,1.5971045E0,1.9177343E0,3.7728806E0,2.6639252E0,7.090893E0,6.02903E0,6.5055456E0,9.562885E0,5.982517E0,5.1220503E0,1.0610266E1,4.2883663E0,6.7336845E0,6.1590157E0,0E0,1.115551E0,2.583743E0,0E0,0E0,8.702078E-1,0E0,6.599045E-1,2.7017975E0,7.4897804E0,7.569525E0,9.030006E0,4.9682465E0,2.353784E0,5.7181807E0,5.3335085E0,0E0,4.430891E0,0E0,5.077466E0,1.2910888E0,5.2988405E0,2.8037634E0,9.397979E0,5.185217E0,5.507235E0,3.424549E0,2.8511138E0,5.828377E0,3.762868E0,3.8450603E0,2.134451E0,0E0,0E0,0E0,0E0,0E0,0E0,0E0,0E0,0E0,0E0,0E0,0E0,0E0,0E0,0E0,0E0,0E0,0E0,0E0,0E0,0E0,0E0,0E0,0E0,0E0,0E0,0E0,0E0,0E0,0E0,0E0,0E0,0E0,0E0,0E0,0E0,0E0,0E0,0E0,0E0,0E0,0E0,0E0,0E0,0E0,0E0,0E0,0E0,0E0,0E0],"parents":[2147483647,0,0,1,1,2,2,3,3,4,4,5,5,6,6,7,7,8,8,9,9,10,10,11,11,12,12,13,13,14,14,15,15,16,16,17,17,18,18,19,19,20,20,21,21,22,22,23,23,24,24,25,25,26,26,27,27,28,28,30,30,31,31,34,34,36,36,37,37,38,38,39,39,40,40,41,41,42,42,43,43,44,44,46,46,48,48,49,49,50,50,51,51,52,52,53,53,54,54,55,55,56,56,57,57,58,58,59,59,60,60],"right_children":[2,4,6,8,10,12,14,16,18,20,22,24,26,28,30,32,34,36,38,40,42,44,46,48,50,52,54,56,58,-1,60,62,-1,-1,64,-1,66,68,70,72,74,76,78,80,82,-1,84,-1,86,88,90,92,94,96,98,100,102,104,106,108,110,-1,-1,-1,-1,-1,-1,-1,-1,-1,-1,-1,-1,-1,-1,-1,-1,-1,-1,-1,-1,-1,-1,-1,-1,-1,-1,-1,-1,-1,-1,-1,-1,-1,-1,-1,-1,-1,-1,-1,-1,-1,-1,-1,-1,-1,-1,-1,-1,-1,-1],"split_conditions":[1.9E0,1.54E0,2.2E0,3.965632E0,1.736E0,2.01E0,3.302521E0,2.0903732E-1,1.16E0,2.28E2,5.020425E0,7.043344E-2,-2.7631578E-1,9.9E1,-4.4134507E-1,6.986325E-2,5.3324554E-2,4.7E1,-2.7177316E-1,-3.3665836E-1,4.93E2,1.2568424E0,-2.9266486E-1,3E0,1.75E0,3.4286685E0,3.03E2,6.845023E-1,2.07E0,-0E0,4.12E2,2.58E2,-0E0,-2.110224E-2,0E0,-0E0,1.892E0,9.588532E-2,4.38E2,8.9E1,-2.4113475E-1,3.2E0,-2.6314798E-1,6.3380283E-1,1.46E0,1.3740112E-2,1.14E2,-2.8860921E-2,2.27E2,4.17E2,1.932E0,1.98E2,4.83E2,-6.320908E-2,6.2082237E-1,5.2739374E-2,-2.1845111E-1,6.5E1,4.45E2,4.73644E-2,2.1111112E0,2.9187325E-2,1.586508E-3,6.6228337E-3,-6.9843056E-3,1.4983421E-2,3.228299E-2,2.0451104E-2,-0E0,1.5429511E-2,-0E0,-1.8627984E-3,1.5506422E-2,-5.245238E-3,5.4533803E-3,1.3070225E-2,7.1351686E-3,-2.5209524E-2,-0E0,2.960748E-3,-6.802575E-3,-7.801625E-3,1.049836E-2,-0E0,-3.4202717E-2,4.7919E-3,-7.4622105E-4,1.7620375E-2,-0E0,-1.0711502E-2,-1.1431931E-3,-1.7823208E-2,-5.438941E-3,1.6975097E-3,-2.0332916E-2,-5.8901296E-3,-1.4092217E-2,-5.51463E-3,5.996497E-3,-2.501693E-2,-1.36111695E-2,1.854934E-2,-7.0600943E-3,-1.727301E-2,-8.3236275E-3,2.4808366E-3,-1.755166E-2,1.4051783E-3,-1.7471584E-2,-2.1541144E-3,-3.3293866E-2],"split_indices":[16,16,16,5,16,16,4,8,0,12,5,3,9,11,7,3,3,12,9,7,11,8,9,11,2,5,11,9,15,0,12,11,0,0,7,0,15,3,12,11,7,2,8,9,0,0,11,0,11,12,15,11,11,7,7,3,7,12,12,3,6,0,0,0,0,0,0,0,0,0,0,0,0,0,0,0,0,0,0,0,0,0,0,0,0,0,0,0,0,0,0,0,0,0,0,0,0,0,0,0,0,0,0,0,0,0,0,0,0,0,0],"split_type":[0,0,0,0,0,0,0,0,0,0,0,0,0,0,0,0,0,0,0,0,0,0,0,0,0,0,0,0,0,0,0,0,0,0,0,0,0,0,0,0,0,0,0,0,0,0,0,0,0,0,0,0,0,0,0,0,0,0,0,0,0,0,0,0,0,0,0,0,0,0,0,0,0,0,0,0,0,0,0,0,0,0,0,0,0,0,0,0,0,0,0,0,0,0,0,0,0,0,0,0,0,0,0,0,0,0,0,0,0,0,0],"sum_hessian":[5.2553965E3,2.3550679E3,2.9003289E3,4.9353558E2,1.8615322E3,1.8881001E3,1.0122289E3,3.648975E1,4.5704584E2,1.1311743E3,7.3035785E2,8.282978E2,1.0598022E3,8.802389E2,1.3198996E2,1.9852848E1,1.6636904E1,5.229355E1,4.047523E2,5.2710706E2,6.0406726E2,7.103781E2,1.9979757E1,5.9059753E2,2.3770029E2,4.6548834E2,5.943139E2,1.8597673E2,6.942622E2,3.7393618E0,1.282506E2,1.637598E1,3.4768667E0,3.7297165E0,1.29071865E1,4.414983E0,4.7878567E1,1.564301E2,2.4832219E2,1.1864538E2,4.0846167E2,5.9583405E2,8.233246E0,5.4908E2,1.6129811E2,5.9931755E0,1.3986582E1,3.749382E0,5.8684814E2,1.1241692E1,2.2645859E2,8.8695404E1,3.7679294E2,3.4521542E2,2.490985E2,1.7600935E2,9.967369E0,6.252086E2,6.905356E1,1.0734022E2,2.0910385E1,7.941627E0,8.434354E0,6.4484253E0,6.4587617E0,1.7206553E1,3.0672012E1,1.5121307E2,5.2170267E0,2.1560277E2,3.2719425E1,2.5195578E1,9.34498E1,8.654042E1,3.2192126E2,2.9255255E2,3.0328146E2,3.7413902E0,4.491856E0,4.918674E2,5.7212578E1,1.2484358E1,1.4881375E2,3.7473247E0,1.0239257E1,2.6044058E2,3.2640753E2,7.993641E0,3.2480505E0,1.22975586E2,1.03483E2,3.3974266E1,5.4721138E1,3.605665E2,1.6226435E1,2.2456154E2,1.2065389E2,2.0762102E2,4.1477474E1,4.7536137E1,1.2847322E2,5.4815006E0,4.485869E0,8.5024155E1,5.4018445E2,6.1325474E1,7.7280846E0,7.216339E0,1.0012388E2,4.98594E0,1.5924445E1],"tree_param":{"num_deleted":"0","num_feature":"18","num_nodes":"111","size_leaf_vector":"1"}},{"base_weights":[4.77201E-3,2.2015679E-1,-2.4433222E-1,4.728357E-1,1.3016735E-1,-1.7121217E-1,-4.507371E-1,5.0083995E-1,4.590201E-2,5.38151E-2,2.0438343E-1,-9.516747E-2,-2.4703531E-1,-3.7331387E-1,-5.816908E-1,3.7645757E-1,5.969855E-1,-4.9013093E-2,1.9832151E-2,-3.890362E-2,1.5886244E-1,3.864366E-1,1.6517478E-1,-1.292452E-1,1.0532811E-1,-1.5227282E-1,-3.040383E-1,-4.4010872E-1,-9.8136894E-2,3.9289403E-3,-6.0757565E-1,3.934564E-1,-9.930304E-3,6.135747E-1,-0E0,-2.3280242E-1,4.8168924E-1,1.588267E-2,-3.7841317E-1,-4.2972356E-2,2.1050924E-1,2.2840028E-1,5.641136E-1,5.132262E-1,1.3911939E-1,-7.101271E-2,-2.2297956E-1,1.8336865E-1,-4.265474E-1,-3.8300493E-1,-3.1481378E-2,-5.872368E-1,-2.27615E-1,-2.6978582E-2,-3.720715E-1,-4.6575326E-1,3.996339E-2,-4.4211227E-1,-7.739523E-1,1.3722436E-2,4.9107024E-3,2.1298463E-2,1.44454725E-2,-2.5595395E-2,2.1265693E-2,-1.789682E-2,3.7915881E-3,-0E0,2.3134535E-2,2.5812709E-3,-3.8542568E-3,8.267489E-3,-1.38380295E-2,2.2995623E-3,-1.5260549E-2,-6.898385E-4,8.809985E-3,-1.314913E-2,9.828093E-3,-1.0557942E-2,1.873802E-2,6.6047707E-3,2.5865978E-2,1.0693204E-2,2.7002243E-3,-1.2238424E-2,-8.865249E-4,-2.1627301E-2,-4.278294E-3,-6.690964E-3,8.190031E-3,1.3512032E-2,-2.604884E-2,-5.0030723E-3,-2.0906793E-2,5.100217E-3,-8.845086E-3,-3.4270699E-3,-2.1684418E-2,-3.826561E-3,-1.0897937E-2,-1.7027969E-2,-7.328687E-3,9.508183E-3,-2.1719063E-2,-2.0942895E-3,1.9579375E-2,-1.7036442E-2,4.9954443E-3,7.7252414E-5,-2.4384143E-2],"categories":[],"categories_nodes":[],"categories_segments":[],"categories_sizes":[],"default_left":[0,0,0,0,0,0,0,0,0,0,0,0,0,0,0,0,0,0,0,0,0,0,0,0,0,0,0,0,0,0,0,0,0,0,0,0,0,0,0,0,0,0,0,0,0,0,0,0,0,0,0,0,0,0,0,0,0,0,0,0,0,0,0,0,0,0,0,0,0,0,0,0,0,0,0,0,0,0,0,0,0,0,0,0,0,0,0,0,0,0,0,0,0,0,0,0,0,0,0,0,0,0,0,0,0,0,0,0,0,0,0],"id":11,"left_children":[1,3,5,7,9,11,13,15,17,19,21,23,25,27,29,31,33,35,-1,37,39,41,43,45,47,49,51,53,55,-1,57,59,-1,61,63,65,67,69,71,73,75,77,79,81,83,85,87,89,91,93,95,97,99,-1,101,103,105,107,109,-1,-1,-1,-1,-1,-1,-1,-1,-1,-1,-1,-1,-1,-1,-1,-1,-1,-1,-1,-1,-1,-1,-1,-1,-1,-1,-1,-1,-1,-1,-1,-1,-1,-1,-1,-1,-1,-1,-1,-1,-1,-1,-1,-1,-1,-1,-1,-1,-1,-1,-1,-1],"loss_changes":[2.820427E2,6.3431793E1,3.5983383E1,8.222458E0,1.1541718E1,1.0020157E1,5.021805E0,6.822876E0,3.583779E0,1.0239235E1,6.8197746E0,6.2767267E0,4.2918053E0,6.8703156E0,4.8151627E0,4.0578117E0,3.8174133E0,4.226505E0,0E0,1.0562725E1,5.3137608E0,4.0084133E0,7.1164856E0,3.9535456E0,5.2765245E0,9.237594E0,1.0842094E1,8.201069E0,4.785631E0,0E0,4.1651306E0,3.7196388E0,0E0,2.8436737E0,8.587072E0,5.209818E0,1.7222548E0,4.750159E0,4.7056627E0,5.966885E0,7.9734592E0,6.901904E0,5.170927E0,4.402767E0,8.210048E0,6.426606E0,1.0652141E1,4.3869076E0,7.2025213E0,6.7960396E0,1.2583875E1,6.246643E0,5.387726E0,0E0,6.1074257E0,5.9966536E0,4.8275566E0,9.634218E0,3.957653E0,0E0,0E0,0E0,0E0,0E0,0E0,0E0,0E0,0E0,0E0,0E0,0E0,0E0,0E0,0E0,0E0,0E0,0E0,0E0,0E0,0E0,0E0,0E0,0E0,0E0,0E0,0E0,0E0,0E0,0E0,0E0,0E0,0E0,0E0,0E0,0E0,0E0,0E0,0E0,0E0,0E0,0E0,0E0,0E0,0E0,0E0,0E0,0E0,0E0,0E0,0E0,0E0],"parents":[2147483647,0,0,1,1,2,2,3,3,4,4,5,5,6,6,7,7,8,8,9,9,10,10,11,11,12,12,13,13,14,14,15,15,16,16,17,17,19,19,20,20,21,21,22,22,23,23,24,24,25,25,26,26,27,27,28,28,30,30,31,31,33,33,34,34,35,35,36,36,37,37,38,38,39,39,40,40,41,41,42,42,43,43,44,44,45,45,46,46,47,47,48,48,49,49,50,50,51,51,52,52,54,54,55,55,56,56,57,57,58,58],"right_children":[2,4,6,8,10,12,14,16,18,20,22,24,26,28,30,32,34,36,-1,38,40,42,44,46,48,50,52,54,56,-1,58,60,-1,62,64,66,68,70,72,74,76,78,80,82,84,86,88,90,92,94,96,98,100,-1,102,104,106,108,110,-1,-1,-1,-1,-1,-1,-1,-1,-1,-1,-1,-1,-1,-1,-1,-1,-1,-1,-1,-1,-1,-1,-1,-1,-1,-1,-1,-1,-1,-1,-1,-1,-1,-1,-1,-1,-1,-1,-1,-1,-1,-1,-1,-1,-1,-1,-1,-1,-1,-1,-1,-1],"split_conditions":[1.98E0,1.61E0,2.256E0,3.023572E0,2.04E0,2.1E0,4.7862187E-1,2.5E0,6E0,1.942E0,5.1337987E-2,2.048E0,3.0624614E0,-8.595989E-2,2.057143E0,8.073654E-1,9.6491225E-2,4.481913E-1,1.9832151E-2,1.922E0,-1.4267843E0,4.9007446E-2,2.9E1,3.784669E0,4.41E2,-1.137855E0,3.3759198E0,-4.8665956E-1,2.75E0,3.9289403E-3,3.2986395E0,5.196429E0,-9.930304E-3,0E0,1.0277778E-1,4.0448604E0,4.251744E0,7.359307E-2,-2.2138777E0,1.7712845E0,-3.8358423E-1,-2.3619978E0,-3.2308993E0,3.6115942E0,1.95E0,-2.0800147E0,3.9970238E0,3.433155E0,-1.1996698E0,6.1827958E-2,2.9886875E-1,1.15E2,6.0393557E-2,-2.6978582E-2,1.52E0,5.1879086E-2,7.5187966E-2,3.270202E0,-5.510441E-1,1.3722436E-2,4.9107024E-3,2.1298463E-2,1.44454725E-2,-2.5595395E-2,2.1265693E-2,-1.789682E-2,3.7915881E-3,-0E0,2.3134535E-2,2.5812709E-3,-3.8542568E-3,8.267489E-3,-1.38380295E-2,2.2995623E-3,-1.5260549E-2,-6.898385E-4,8.809985E-3,-1.314913E-2,9.828093E-3,-1.0557942E-2,1.873802E-2,6.6047707E-3,2.5865978E-2,1.0693204E-2,2.7002243E-3,-1.2238424E-2,-8.865249E-4,-2.1627301E-2,-4.278294E-3,-6.690964E-3,8.190031E-3,1.3512032E-2,-2.604884E-2,-5.0030723E-3,-2.0906793E-2,5.100217E-3,-8.845086E-3,-3.4270699E-3,-2.1684418E-2,-3.826561E-3,-1.0897937E-2,-1.7027969E-2,-7.328687E-3,9.508183E-3,-2.1719063E-2,-2.0942895E-3,1.9579375E-2,-1.7036442E-2,4.9954443E-3,7.7252414E-5,-2.4384143E-2],"split_indices":[16,16,16,10,17,16,10,17,1,15,3,14,6,10,6,7,3,7,0,15,8,3,12,6,12,8,6,9,2,0,5,5,0,9,3,10,5,3,8,10,9,10,8,6,2,10,6,5,10,3,8,12,3,0,17,3,3,5,9,0,0,0,0,0,0,0,0,0,0,0,0,0,0,0,0,0,0,0,0,0,0,0,0,0,0,0,0,0,0,0,0,0,0,0,0,0,0,0,0,0,0,0,0,0,0,0,0,0,0,0,0],"split_type":[0,0,0,0,0,0,0,0,0,0,0,0,0,0,0,0,0,0,0,0,0,0,0,0,0,0,0,0,0,0,0,0,0,0,0,0,0,0,0,0,0,0,0,0,0,0,0,0,0,0,0,0,0,0,0,0,0,0,0,0,0,0,0,0,0,0,0,0,0,0,0,0,0,0,0,0,0,0,0,0,0,0,0,0,0,0,0,0,0,0,0,0,0,0,0,0,0,0,0,0,0,0,0,0,0,0,0,0,0,0,0],"sum_hessian":[5.2532124E3,2.8195615E3,2.4336511E3,7.3530304E2,2.0842585E3,1.8033192E3,6.3033185E2,6.875176E2,4.7785458E1,1.0356863E3,1.0485723E3,9.091807E2,8.941384E2,4.0576868E2,2.2456316E2,3.0856396E2,3.789536E2,4.1584442E1,6.201018E0,5.457376E2,4.8994864E2,1.7815384E2,8.7041846E2,7.8196967E2,1.2721104E2,3.4518457E2,5.4895386E2,3.2262408E2,8.3144615E1,6.232054E0,2.183311E2,3.0357104E2,4.992928E0,3.6877234E2,1.0181264E1,3.3121113E1,8.463327E0,4.6901428E2,7.672332E1,9.595026E1,3.9399838E2,9.9686226E1,7.846761E1,5.5344498E1,8.150739E2,4.910737E2,2.90896E2,1.1371639E2,1.349465E1,1.14276596E2,2.3090799E2,1.1103673E2,4.379171E2,3.658461E1,2.8603946E2,2.3386591E1,5.9758022E1,1.1614686E2,1.0218425E2,2.325142E2,7.105684E1,2.0375296E2,1.6501938E2,4.482068E0,5.699196E0,1.718243E1,1.5938683E1,3.4847095E0,4.978618E0,3.2082474E2,1.4818956E2,6.7468424E0,6.997647E1,7.596199E1,1.9988268E1,1.00688255E2,2.9331015E2,1.0720557E1,8.896567E1,3.2394125E0,7.5228195E1,3.341224E1,2.193226E1,1.4418347E2,6.7089044E2,4.922842E1,4.4184528E2,3.6483063E1,2.5441292E2,1.7994507E1,9.5721886E1,3.7490957E0,9.745554E0,7.136327E1,4.2913322E1,1.2907018E2,1.0183781E2,2.7200544E1,8.383618E1,2.5849146E2,1.7942566E2,1.07238E2,1.7880147E2,4.727922E0,1.865867E1,5.0796814E1,8.961209E0,9.772873E1,1.8418125E1,3.7315886E0,9.845266E1],"tree_param":{"num_deleted":"0","num_feature":"18","num_nodes":"111","size_leaf_vector":"1"}},{"base_weights":[6.7696413E-3,-1.8789066E-1,2.543017E-1,-2.8092545E-1,-3.384134E-2,1.9491607E-1,6.165591E-1,-4.2105502E-1,-2.4082395E-1,-5.9208274E-2,4.3281215E-1,8.726933E-2,2.6271716E-1,6.516647E-1,1.6175108E-1,-4.5064718E-1,6.878218E-2,-1.9206063E-1,-3.595954E-1,-2.2589995E-1,-1.7955543E-2,-1.7360038E-1,5.6968087E-1,3.845569E-2,2.6860225E-1,3.1729075E-1,1.5505086E-1,8.7114424E-1,5.710291E-1,-9.264864E-2,4.9594024E-1,-4.6518025E-1,1.3503342E-2,-1.8865954E-2,3.9251578E-1,-2.1138978E-1,8.7412424E-2,-3.7927264E-1,3.2094347E-1,-3.1769162E-1,2.5337655E-2,-3.375741E-1,7.6953187E-3,-1.601619E-2,4.8603045E-4,7.1761525E-1,-1.11474216E-1,2.2723542E-1,-3.0455649E-2,7.046558E-1,1.7621917E-1,-3.3776352E-1,3.3711985E-1,1.9025952E-1,-3.8151124E-1,-0E0,9.410596E-1,-5.457229E-3,5.920129E-1,1.808039E-1,-1.8321205E-2,2.8366672E-2,7.9730384E-2,-1.4452022E-2,3.335701E-3,2.2079105E-2,-0E0,-3.215423E-3,-8.5916575E-3,-1.5473955E-2,1.016012E-2,-1.5041243E-2,-8.0388095E-3,1.932278E-2,-0E0,7.2676055E-3,-1.1033198E-2,1.1950103E-2,-1.1388623E-2,-1.1914499E-2,4.308961E-3,2.572565E-3,-2.4776584E-3,2.5025064E-2,2.8568087E-3,-1.08542675E-2,-0E0,9.446911E-3,-2.140971E-2,-3.7334128E-3,3.3032596E-3,2.798575E-2,-0E0,2.1993585E-3,1.8052353E-2,-1.701064E-2,6.3855057E-3,-9.954001E-4,1.0584567E-2,1.00583555E-2,3.64847E-3,-2.1032011E-2,-0E0,7.540857E-3,3.1616785E-2,3.2317097E-4,1.8633809E-2,-5.757353E-3,1.5844623E-2,-6.3386946E-3,1.4686066E-2],"categories":[],"categories_nodes":[],"categories_segments":[],"categories_sizes":[],"default_left":[0,0,0,0,0,0,0,0,0,0,0,0,0,0,0,0,0,0,0,0,0,0,0,0,0,0,0,0,0,0,0,0,0,0,0,0,0,0,0,0,0,0,0,0,0,0,0,0,0,0,0,0,0,0,0,0,0,0,0,0,0,0,0,0,0,0,0,0,0,0,0,0,0,0,0,0,0,0,0,0,0,0,0,0,0,0,0,0,0,0,0,0,0,0,0,0,0,0,0,0,0,0,0,0,0,0,0,0,0,0,0],"id":12,"left_children":[1,3,5,7,9,11,13,15,17,19,21,23,25,27,29,31,33,35,37,39,41,43,45,47,49,51,53,55,57,59,61,63,-1,-1,65,67,69,71,73,75,77,79,81,-1,-1,83,85,87,89,91,93,95,97,99,101,-1,103,-1,105,107,-1,-1,109,-1,-1,-1,-1,-1,-1,-1,-1,-1,-1,-1,-1,-1,-1,-1,-1,-1,-1,-1,-1,-1,-1,-1,-1,-1,-1,-1,-1,-1,-1,-1,-1,-1,-1,-1,-1,-1,-1,-1,-1,-1,-1,-1,-1,-1,-1,-1,-1],"loss_changes":[2.5500478E2,4.2081863E1,4.9102493E1,9.479767E0,1.294366E1,1.4261879E1,4.1657715E0,6.261818E0,7.658806E0,7.083072E0,5.240673E0,6.618905E0,6.63002E0,2.8557663E0,2.8751926E0,5.417404E0,5.378774E0,5.7367325E0,5.809559E0,5.073675E0,7.4026113E0,1.2527496E0,5.551461E0,8.341548E0,5.38768E0,1.0685944E1,7.9319706E0,4.058361E0,4.225395E0,2.900481E0,1.4650495E0,4.0720367E0,0E0,0E0,2.2802432E0,7.1209564E0,9.999278E0,4.426922E0,1.7431238E0,4.6335707E0,8.512499E0,2.287942E0,5.6344934E0,0E0,0E0,1.8490086E0,6.080877E-1,1.4176155E1,6.0631905E0,3.5256739E0,5.281947E0,3.5210307E0,4.900879E0,3.437296E0,3.1151748E0,0E0,3.4041328E0,0E0,3.1357422E0,1.9208467E0,0E0,0E0,1.7574123E0,0E0,0E0,0E0,0E0,0E0,0E0,0E0,0E0,0E0,0E0,0E0,0E0,0E0,0E0,0E0,0E0,0E0,0E0,0E0,0E0,0E0,0E0,0E0,0E0,0E0,0E0,0E0,0E0,0E0,0E0,0E0,0E0,0E0,0E0,0E0,0E0,0E0,0E0,0E0,0E0,0E0,0E0,0E0,0E0,0E0,0E0,0E0,0E0],"parents":[2147483647,0,0,1,1,2,2,3,3,4,4,5,5,6,6,7,7,8,8,9,9,10,10,11,11,12,12,13,13,14,14,15,15,16,16,17,17,18,18,19,19,20,20,21,21,22,22,23,23,24,24,25,25,26,26,27,27,28,28,29,29,30,30,31,31,34,34,35,35,36,36,37,37,38,38,39,39,40,40,41,41,42,42,45,45,46,46,47,47,48,48,49,49,50,50,51,51,52,52,53,53,54,54,56,56,58,58,59,59,62,62],"right_children":[2,4,6,8,10,12,14,16,18,20,22,24,26,28,30,32,34,36,38,40,42,44,46,48,50,52,54,56,58,60,62,64,-1,-1,66,68,70,72,74,76,78,80,82,-1,-1,84,86,88,90,92,94,96,98,100,102,-1,104,-1,106,108,-1,-1,110,-1,-1,-1,-1,-1,-1,-1,-1,-1,-1,-1,-1,-1,-1,-1,-1,-1,-1,-1,-1,-1,-1,-1,-1,-1,-1,-1,-1,-1,-1,-1,-1,-1,-1,-1,-1,-1,-1,-1,-1,-1,-1,-1,-1,-1,-1,-1,-1],"split_conditions":[1.98E0,1.79E0,2.57E0,1.01E2,7.026817E-1,2.08E0,2.5280576E0,3.8E0,3.63E2,-1.6131791E0,-1.2756809E0,4.06E2,3.196061E-1,1.36E0,1.95E2,3.1E0,5E1,3.45E2,2.11E0,2.012E0,1.58E0,2.44E2,1.7313316E0,1.862E0,-1.7481922E0,-3.509968E0,2.06E0,1.842E0,-2.25E0,4.059381E-1,1.51E0,2.11E0,1.3503342E-2,-1.8865954E-2,2.13E0,-4.797983E-1,-1.2597017E0,-3.494856E-1,9.872984E-3,4E1,3.1247375E0,2.06E0,2.8233916E-1,-1.601619E-2,4.8603045E-4,2.8910255E0,2.79E2,6.6061705E-1,2.03E0,4.69E2,1.6686114E0,3.68E2,1.9E1,-1.9394392E-1,2.4E2,-0E0,-1.2115374E0,-5.457229E-3,1.7E1,4.2481203E0,-1.8321205E-2,2.8366672E-2,3.7439346E0,-1.4452022E-2,3.335701E-3,2.2079105E-2,-0E0,-3.215423E-3,-8.5916575E-3,-1.5473955E-2,1.016012E-2,-1.5041243E-2,-8.0388095E-3,1.932278E-2,-0E0,7.2676055E-3,-1.1033198E-2,1.1950103E-2,-1.1388623E-2,-1.1914499E-2,4.308961E-3,2.572565E-3,-2.4776584E-3,2.5025064E-2,2.8568087E-3,-1.08542675E-2,-0E0,9.446911E-3,-2.140971E-2,-3.7334128E-3,3.3032596E-3,2.798575E-2,-0E0,2.1993585E-3,1.8052353E-2,-1.701064E-2,6.3855057E-3,-9.954001E-4,1.0584567E-2,1.00583555E-2,3.64847E-3,-2.1032011E-2,-0E0,7.540857E-3,3.1616785E-2,3.2317097E-4,1.8633809E-2,-5.757353E-3,1.5844623E-2,-6.3386946E-3,1.4686066E-2],"split_indices":[17,17,17,11,9,17,10,0,12,8,10,12,9,16,12,16,12,12,14,14,0,12,8,14,8,8,15,15,13,8,0,14,0,0,16,10,8,8,10,12,6,14,8,0,0,4,11,9,17,12,10,12,11,10,11,0,8,0,12,4,0,0,10,0,0,0,0,0,0,0,0,0,0,0,0,0,0,0,0,0,0,0,0,0,0,0,0,0,0,0,0,0,0,0,0,0,0,0,0,0,0,0,0,0,0,0,0,0,0,0,0],"split_type":[0,0,0,0,0,0,0,0,0,0,0,0,0,0,0,0,0,0,0,0,0,0,0,0,0,0,0,0,0,0,0,0,0,0,0,0,0,0,0,0,0,0,0,0,0,0,0,0,0,0,0,0,0,0,0,0,0,0,0,0,0,0,0,0,0,0,0,0,0,0,0,0,0,0,0,0,0,0,0,0,0,0,0,0,0,0,0,0,0,0,0,0,0,0,0,0,0,0,0,0,0,0,0,0,0,0,0,0,0,0,0],"sum_hessian":[5.286878E3,2.9575164E3,2.3293618E3,1.8388458E3,1.1186704E3,2.0063011E3,3.2306064E2,3.993683E2,1.4394777E3,1.0646842E3,5.3986267E1,7.8279425E2,1.223507E3,2.970664E2,2.5994253E1,3.7869217E2,2.067612E1,1.0301772E3,4.093004E2,2.0463083E2,8.6005334E2,8.496875E0,4.548939E1,6.2302014E2,1.5977411E2,8.032008E2,4.2030612E2,7.12163E1,2.258501E2,1.388079E1,1.2113463E1,3.7472357E2,3.9685829E0,4.976881E0,1.569924E1,9.673387E2,6.2838493E1,4.00087E2,9.213411E0,1.5240112E2,5.2229702E1,6.4984795E1,7.9506854E2,3.4987566E0,4.998118E0,3.8490913E1,6.9984794E0,1.6925888E2,4.5376126E2,2.3722574E1,1.3605154E2,2.1175312E1,7.820255E2,3.973847E2,2.292144E1,5.892334E0,6.532397E1,4.415618E0,2.2143448E2,8.674002E0,5.2067876E0,3.4453263E0,8.668137E0,3.662675E2,8.4560995E0,7.2442017E0,8.455038E0,4.124463E2,5.548924E2,1.6688267E1,4.6150227E1,1.8316986E2,2.1691714E2,4.985946E0,4.2274647E0,1.0242425E1,1.421587E2,2.8490116E1,2.3739584E1,5.9985714E1,4.9990816E0,4.324025E2,3.6266602E2,3.0493242E1,7.997672E0,3.499434E0,3.4990454E0,1.5702277E2,1.2236128E1,2.7633032E2,1.7743091E2,1.6728447E1,6.9941273E0,1.13337204E2,2.2714338E1,1.6190617E1,4.9846954E0,2.9124718E1,7.5290076E2,1.2049237E2,2.7689233E2,1.1718372E1,1.1203068E1,1.1338015E1,5.3985954E1,1.2331569E1,2.091029E2,3.2271948E0,5.446807E0,4.208292E0,4.459845E0],"tree_param":{"num_deleted":"0","num_feature":"18","num_nodes":"111","size_leaf_vector":"1"}},{"base_weights":[1.4770238E-3,-1.5260494E-1,3.0026814E-1,-3.1287473E-1,-6.5525964E-2,2.2354954E-1,5.615856E-1,-2.8026482E-1,-5.179093E-1,-1.5810004E-1,-1.6594546E-2,1.5713982E-1,3.0331528E-1,6.045022E-1,1.3437961E-1,-2.8854263E-1,4.106578E-1,-6.074731E-1,-2.9198858E-1,-8.511955E-2,-2.5507116E-1,-1.0909872E-1,6.2119517E-2,4.3618393E-1,1.05357625E-1,3.27957E-1,-1.0797271E-1,6.172216E-1,-1.1884655E-3,-1.7832713E-1,3.9651555E-1,-3.6768985E-1,-2.1456978E-1,2.3034416E-2,-0E0,-3.6320862E-1,-7.3099923E-1,3.4432177E-2,-4.9443236E-1,-2.1520774E-1,4.547813E-2,-3.0790111E-2,-2.184918E-1,3.4792166E-2,-1.7967738E-1,1.9897074E-1,7.993533E-3,3.1597772E-1,2.8767949E-2,2.7815485E-1,4.644038E-2,5.8949775E-1,2.9246455E-1,1.4225852E-1,-2.4931088E-2,3.5683748E-1,6.6155034E-1,-3.8635004E-1,8.367613E-3,5.7723963E-1,-3.279674E-4,-1.2236409E-2,-1.925891E-3,-1.2543377E-2,-5.3726602E-3,-2.4872615E-3,-2.1627963E-2,-8.373733E-5,-2.3445068E-2,1.1580104E-2,-5.3003016E-3,-2.4671445E-2,-0E0,-0E0,-1.0403577E-2,-1.8877286E-3,7.9184305E-3,-1.2513501E-2,-3.544306E-3,-4.44019E-3,7.1726325E-3,-1.5085001E-2,-3.8149147E-3,6.634228E-4,9.632157E-3,4.7903727E-3,-1.2778557E-3,2.6517627E-3,1.60021E-2,-9.104697E-4,1.2754867E-2,-3.3516097E-3,4.561129E-3,-1.9136933E-3,2.0303858E-2,7.4383817E-3,1.6827531E-2,1.0586591E-2,-6.086818E-3,1.8520696E-2,-1.3001114E-2,2.3365144E-2,1.5728448E-2,-1.8472567E-2,-0E0,2.3373581E-2,-0E0],"categories":[],"categories_nodes":[],"categories_segments":[],"categories_sizes":[],"default_left":[0,0,0,0,0,0,0,0,0,0,0,0,0,0,0,0,0,0,0,0,0,0,0,0,0,0,0,0,0,0,0,0,0,0,0,0,0,0,0,0,0,0,0,0,0,0,0,0,0,0,0,0,0,0,0,0,0,0,0,0,0,0,0,0,0,0,0,0,0,0,0,0,0,0,0,0,0,0,0,0,0,0,0,0,0,0,0,0,0,0,0,0,0,0,0,0,0,0,0,0,0,0,0,0,0,0,0],"id":13,"left_children":[1,3,5,7,9,11,13,15,17,19,21,23,25,27,29,31,33,35,37,39,41,43,45,47,49,51,53,55,-1,57,59,61,63,-1,-1,65,67,69,71,73,75,-1,77,79,81,83,85,87,-1,89,91,93,95,97,-1,99,101,103,-1,105,-1,-1,-1,-1,-1,-1,-1,-1,-1,-1,-1,-1,-1,-1,-1,-1,-1,-1,-1,-1,-1,-1,-1,-1,-1,-1,-1,-1,-1,-1,-1,-1,-1,-1,-1,-1,-1,-1,-1,-1,-1,-1,-1,-1,-1,-1,-1],"loss_changes":[2.4336745E2,4.8194664E1,3.5042923E1,7.080261E0,1.0073718E1,6.8470383E0,6.5085297E0,6.1925354E0,2.0051727E0,5.104149E0,1.0911058E1,1.0544411E1,6.6343155E0,3.6132965E0,3.7690873E0,5.4231186E0,1.6614554E0,1.7038078E0,3.979919E0,7.857126E0,7.50679E0,7.1814594E0,5.7195563E0,5.4977264E0,6.3500843E0,4.280834E0,7.1839533E0,2.6549225E0,0E0,2.0928206E0,2.4188101E0,5.5648117E0,3.2645302E0,0E0,0E0,3.4634094E0,1.7335396E0,1.8428398E0,5.1539373E0,6.6357346E0,5.516447E0,0E0,5.6469355E0,8.550352E0,7.201437E0,4.427142E0,4.588791E0,4.2326345E0,0E0,7.796302E0,8.383631E0,4.4382477E0,5.244198E0,2.2108586E0,0E0,1.3044455E1,2.7307281E0,1.2279718E0,0E0,2.815341E0,0E0,0E0,0E0,0E0,0E0,0E0,0E0,0E0,0E0,0E0,0E0,0E0,0E0,0E0,0E0,0E0,0E0,0E0,0E0,0E0,0E0,0E0,0E0,0E0,0E0,0E0,0E0,0E0,0E0,0E0,0E0,0E0,0E0,0E0,0E0,0E0,0E0,0E0,0E0,0E0,0E0,0E0,0E0,0E0,0E0,0E0,0E0],"parents":[2147483647,0,0,1,1,2,2,3,3,4,4,5,5,6,6,7,7,8,8,9,9,10,10,11,11,12,12,13,13,14,14,15,15,16,16,17,17,18,18,19,19,20,20,21,21,22,22,23,23,24,24,25,25,26,26,27,27,29,29,30,30,31,31,32,32,35,35,36,36,37,37,38,38,39,39,40,40,42,42,43,43,44,44,45,45,46,46,47,47,49,49,50,50,51,51,52,52,53,53,55,55,56,56,57,57,59,59],"right_children":[2,4,6,8,10,12,14,16,18,20,22,24,26,28,30,32,34,36,38,40,42,44,46,48,50,52,54,56,-1,58,60,62,64,-1,-1,66,68,70,72,74,76,-1,78,80,82,84,86,88,-1,90,92,94,96,98,-1,100,102,104,-1,106,-1,-1,-1,-1,-1,-1,-1,-1,-1,-1,-1,-1,-1,-1,-1,-1,-1,-1,-1,-1,-1,-1,-1,-1,-1,-1,-1,-1,-1,-1,-1,-1,-1,-1,-1,-1,-1,-1,-1,-1,-1,-1,-1,-1,-1,-1,-1],"split_conditions":[2.04E0,1.68E0,2.5E0,3.302521E0,1.81E0,2.2E0,2.3062885E0,4.658587E0,0E0,6.284039E-2,-2.253807E-1,1.91E0,3.3692203E0,2.08E0,1.89E2,1.61E0,-6.5862435E-1,2.04E2,1.902E0,3.4068377E0,-4.9153468E-1,5.5394057E-2,1.854E0,1.9493421E0,-9.2483026E-1,-4.527178E-1,3.81E2,4.1E0,-1.1884655E-3,8.095238E-2,1.992E0,7.5187966E-2,6.5E1,2.3034416E-2,-0E0,6.1827958E-2,1.8545321E0,2.012E0,1.63E0,-3.3615756E-1,3.37E2,-3.0790111E-2,1.51E2,2.77E2,5.7513915E-2,1.93E0,1.842E0,-1.7877094E-1,2.8767949E-2,-2.349949E0,3.395722E0,1.86E0,1.7313316E0,5.131307E-1,-2.4931088E-2,3.75E0,-2.7343404E-1,-1.10987484E-1,8.367613E-3,2.024E0,-3.279674E-4,-1.2236409E-2,-1.925891E-3,-1.2543377E-2,-5.3726602E-3,-2.4872615E-3,-2.1627963E-2,-8.373733E-5,-2.3445068E-2,1.1580104E-2,-5.3003016E-3,-2.4671445E-2,-0E0,-0E0,-1.0403577E-2,-1.8877286E-3,7.9184305E-3,-1.2513501E-2,-3.544306E-3,-4.44019E-3,7.1726325E-3,-1.5085001E-2,-3.8149147E-3,6.634228E-4,9.632157E-3,4.7903727E-3,-1.2778557E-3,2.6517627E-3,1.60021E-2,-9.104697E-4,1.2754867E-2,-3.3516097E-3,4.561129E-3,-1.9136933E-3,2.0303858E-2,7.4383817E-3,1.6827531E-2,1.0586591E-2,-6.086818E-3,1.8520696E-2,-1.3001114E-2,2.3365144E-2,1.5728448E-2,-1.8472567E-2,-0E0,2.3373581E-2,-0E0],"split_indices":[17,17,17,4,17,17,10,8,8,3,8,2,8,15,12,17,10,12,15,6,7,3,14,6,8,7,12,1,0,3,14,3,12,0,0,3,6,14,17,10,12,0,12,12,3,17,15,7,0,8,6,2,8,7,0,6,10,7,0,15,0,0,0,0,0,0,0,0,0,0,0,0,0,0,0,0,0,0,0,0,0,0,0,0,0,0,0,0,0,0,0,0,0,0,0,0,0,0,0,0,0,0,0,0,0,0,0],"split_type":[0,0,0,0,0,0,0,0,0,0,0,0,0,0,0,0,0,0,0,0,0,0,0,0,0,0,0,0,0,0,0,0,0,0,0,0,0,0,0,0,0,0,0,0,0,0,0,0,0,0,0,0,0,0,0,0,0,0,0,0,0,0,0,0,0,0,0,0,0,0,0,0,0,0,0,0,0,0,0,0,0,0,0,0,0,0,0,0,0,0,0,0,0,0,0,0,0,0,0,0,0,0,0,0,0,0,0],"sum_hessian":[5.2789946E3,3.4813486E3,1.797646E3,1.2197379E3,2.2616108E3,1.3954902E3,4.0215576E2,1.060656E3,1.5908197E2,7.734363E2,1.4881744E3,7.715803E2,6.239099E2,3.6256238E2,3.9593395E1,1.05068E3,9.975874E0,1.0833118E2,5.0750793E1,4.4933475E2,3.2410156E2,6.896432E2,7.985313E2,1.15424065E2,6.5615625E2,5.913185E2,3.259142E1,3.5714584E2,5.416529E0,1.66071E1,2.2986298E1,4.972201E2,5.5345996E2,4.243981E0,5.731893E0,4.1749863E1,6.6581314E1,1.8171394E1,3.25794E1,2.2829337E2,2.2104137E2,1.0987145E1,3.131144E2,2.2262215E2,4.6702103E2,2.1956337E2,5.789679E2,9.800876E1,1.7415304E1,1.6063065E2,4.955256E2,6.3559715E1,5.277588E2,2.4378305E1,8.213115E0,5.7871407E1,2.9927444E2,1.3130526E1,3.476574E0,1.7046263E1,5.940035E0,4.3555798E2,6.166212E1,7.477119E1,4.786888E2,2.6356668E1,1.5393195E1,5.7391596E0,6.0842155E1,7.973186E0,1.0198208E1,1.8119926E1,1.4459473E1,8.6425415E1,1.4186795E2,1.4562857E2,7.541279E1,9.963084E1,2.1348357E2,1.15200165E2,1.0742199E2,6.0223934E1,4.0679712E2,9.398442E1,1.2557896E2,1.4866481E2,4.303031E2,5.1507126E1,4.6501633E1,5.015729E1,1.1047335E2,1.9454918E2,3.009764E2,6.205395E0,5.7354317E1,4.5918317E2,6.8575615E1,1.6910934E1,7.4673705E0,4.4803406E1,1.3068002E1,1.5241365E2,1.468608E2,7.1954155E0,5.9351096E0,1.3092675E1,3.9535875E0],"tree_param":{"num_deleted":"0","num_feature":"18","num_nodes":"107","size_leaf_vector":"1"}},{"base_weights":[-2.2634743E-3,1.9291967E-1,-2.3139137E-1,4.8125234E-1,1.3311593E-1,-1.3880888E-1,-3.5599262E-1,5.129105E-1,1.17342565E-2,2.1735138E-1,3.3932436E-2,-1.1879495E-1,-3.5553682E-1,-3.187291E-1,-5.8261675E-1,8.2135534E-1,4.7390732E-1,-3.1227562E-1,3.4492612E-1,2.248213E-1,-4.415366E-1,-6.460538E-2,1.1418148E-1,-4.7073014E-2,-1.7152543E-1,-8.154029E-1,-1.673631E-1,-8.981338E-2,-3.4209514E-1,1.0454846E-2,-6.3330925E-1,2.397907E-3,9.536162E-1,5.23328E-1,2.9481417E-1,5.556283E-2,-2.2442747E-2,5.3877425E-1,-1.1758171E-3,-0E0,2.455656E-1,-2.2760663E-2,-0E0,2.4006344E-1,-1.0434195E-1,2.93433E-1,3.944404E-2,3.8434584E-2,-1.9069925E-1,-2.694785E-1,-6.0861427E-2,-3.230034E-2,-3.2644793E-1,-4.0688835E-2,-2.6956705E-2,-3.6205813E-1,1.85257E-1,-3.6662444E-1,-1.4794563E-1,-6.7839026E-1,-0E0,-7.4224398E-3,1.2859309E-2,5.0921575E-3,3.2100853E-2,1.6266828E-2,1.6788666E-3,-7.8523175E-5,1.2738304E-2,-5.621582E-3,1.4282585E-2,1.739689E-3,2.5323594E-2,-2.0743562E-3,1.2073024E-2,1.4484568E-2,6.765647E-3,-1.0319219E-2,6.632392E-3,-2.4702502E-3,1.6910816E-2,-5.9159496E-3,2.8507374E-3,-1.0646465E-2,1.0840667E-2,-5.9600123E-3,3.1484303E-3,-1.3375662E-3,7.147409E-3,7.889382E-3,-7.4035362E-3,1.4964448E-2,-8.483011E-3,1.7821216E-3,-4.9703983E-3,1.7510916E-3,-1.793664E-2,-8.5209375E-3,3.4377507E-3,-1.5563163E-2,2.570648E-4,-2.3025291E-2,9.683888E-3,